// #### Generated By: http://www.cufonfonts.com ####
/*!
 * The following copyright notice may not be removed under any circumstances.
 * 
 * Copyright:
 * Copyright (c) 2008 by Michael Tension. All rights reserved.
 * 
 * Trademark:
 * 2Dumb is a trademark of Michael Tension.
 * 
 * Description:
 * Copyright (c) 2008 by Michael Tension. All rights reserved.
 * 
 * Manufacturer:
 * Michael Tension
 */
Cufon.registerFont({"w":402,"face":{"font-family":"2Dumb","font-weight":400,"font-stretch":"normal","units-per-em":"1000","panose-1":"2 0 0 0 0 0 0 0 0 0","ascent":"750","descent":"-250","cap-height":"34","bbox":"-116.392 -1169 1026 424","underline-thickness":"50","underline-position":"-50","unicode-range":"U+0020-U+20AC"},"glyphs":{" ":{"w":500},"\u00a0":{"w":500},"A":{"d":"526,14v-15,0,-28,-14,-27,-32r-108,-130r-212,-42v-63,21,-73,67,-84,132v-3,16,-11,29,-24,40r-53,-44r214,-603r106,-44r0,44v-51,107,53,180,53,302r0,129v82,-1,167,7,214,44r-161,42v50,35,60,93,108,130v1,18,-11,32,-26,32xm338,-234r-53,-259r-39,65v-31,56,-65,113,-67,194r159,0","w":629},"a":{"d":"485,-445v-153,10,-228,115,-301,207v-39,49,-69,102,-102,156v197,35,301,-90,403,-184r0,-179xm577,-266v63,65,105,134,224,137v-103,83,-194,-51,-271,-92v-93,90,-181,194,-323,229v-39,9,-81,7,-125,-5v-39,-36,-48,-103,-47,-176r73,-79v81,-86,168,-189,288,-232v87,-31,157,-13,220,39v-3,62,-35,118,-39,179","w":792},"b":{"d":"509,-5v-107,43,-250,7,-367,1r-46,-94v-12,-59,-23,-119,-34,-181v-29,-169,-49,-378,-12,-552v89,72,9,243,49,365v125,-57,326,-19,410,47v85,39,96,147,137,230v-4,101,-85,130,-137,184xm144,-369v-40,70,-10,147,1,226v17,122,181,95,316,88v74,-34,94,-114,90,-223v-55,-84,-151,-129,-293,-116v-38,4,-76,12,-114,25","w":679},"c":{"d":"406,-521v46,-2,104,-34,143,-6v15,11,24,33,24,63v-164,-43,-269,75,-339,176v-8,14,-14,26,-19,37v3,157,133,200,277,215v58,6,117,5,163,-10v40,-13,69,4,91,26v-231,69,-520,7,-641,-124v0,-209,167,-298,301,-377","w":833},"d":{"d":"476,-255v4,-113,-121,-135,-208,-84v-47,28,-85,82,-124,122v-36,37,-47,104,-15,159v85,-5,188,55,248,0v40,-36,108,-59,128,-113v14,-38,-4,-58,-29,-84xm554,-631v-22,10,-25,40,-28,79v-6,77,3,224,32,271v7,10,13,13,20,10v47,-95,-2,-222,-3,-330xm476,-404v-10,-123,-35,-278,50,-345v71,19,91,111,97,198v58,115,37,322,-48,395v38,38,72,95,111,132v37,36,141,-7,135,64v-6,66,-123,34,-148,0r-147,-98v-60,56,-171,56,-248,98v-93,-44,-204,-53,-246,-148v9,-162,137,-233,246,-296v34,-36,79,-51,147,-49","w":703},"e":{"d":"180,-267v166,5,292,-22,343,-137v0,-58,-59,-19,-87,-10v-39,13,-69,5,-111,22v-60,23,-134,56,-145,125xm601,-405v-38,136,-193,149,-311,206v-52,25,-119,5,-176,5v-37,0,-38,61,-13,86v48,48,125,77,223,58v86,-16,204,-31,277,7v-144,51,-383,101,-517,0v-64,-22,-75,-105,-37,-161v12,-18,24,-34,37,-47v45,-143,184,-197,309,-258v115,-6,173,25,208,104","w":632},"f":{"d":"198,-256v-10,-155,-67,-361,44,-448v142,-111,335,-86,499,1v27,26,43,56,19,83v-4,4,-11,6,-21,7v-25,27,-41,43,-95,38r40,-80v-100,-30,-242,-76,-359,-34v-131,47,-80,247,-69,396v102,6,163,-38,261,-37r0,55v-96,-1,-191,5,-224,68r-1,235v-24,27,-41,-24,-54,-45r-38,-183v-67,9,-158,74,-191,-11v37,-41,111,-45,189,-45","w":684},"g":{"d":"519,-438v-86,-1,-151,3,-189,49v-89,48,-178,112,-189,235v80,2,121,-38,189,-47v63,-55,171,-77,194,-173v4,-18,3,-40,-5,-64xm-1,224v-2,-53,57,-91,93,-47r-47,47v71,79,266,101,379,46v64,-59,149,-104,189,-189v-6,-128,-51,-238,-94,-331v-117,62,-231,186,-427,143v-78,-35,-11,-130,22,-163v93,-95,180,-232,356,-232v74,0,117,47,143,113v-38,171,82,291,45,471v-7,32,-24,62,-45,95v-58,91,-151,174,-283,189v-118,-43,-297,-5,-331,-142","w":690},"h":{"d":"434,-384v135,89,212,229,203,456v-108,-24,-82,-172,-117,-267v-6,-16,-18,-28,-35,-37v-35,-35,-95,-103,-152,-51v-83,76,-67,230,-152,304r-51,-50r-101,-760v26,-32,76,-27,101,0v1,214,50,394,51,608v53,-93,121,-190,253,-203","w":681},"i":{"d":"82,-722v55,58,-17,120,-51,154v6,-62,-19,-150,51,-154xm133,-414v0,133,5,270,52,359v41,0,16,37,0,51r0,51v-98,-98,-155,-332,-103,-512","w":218},"j":{"d":"255,-771v-26,-2,-41,9,-42,31r-18,0v-19,-33,-90,-22,-104,-59v6,-41,68,-36,107,-41v37,-5,61,24,57,69xm123,23v79,38,157,43,239,2v40,-42,75,-118,77,-192r-103,-134v-48,-58,-88,-151,-56,-253v51,40,50,131,95,176v46,83,121,148,130,260v11,142,-120,189,-220,240v-117,-6,-212,-47,-254,-132r60,-61v3,46,-9,93,32,94","w":526},"k":{"d":"25,-330v93,-94,-1,-253,0,-384v28,-35,60,-36,65,12v3,24,8,50,14,70v3,9,8,14,16,14r0,192v103,-47,173,-187,337,-143r-337,239v57,104,211,107,290,192v41,44,99,56,95,145v-97,-91,-208,-185,-385,-194v9,73,43,171,0,241v-88,-76,-9,-284,-95,-384","w":533},"l":{"d":"139,-733v-55,301,66,518,137,749r-78,0r-5,-9v-116,-177,-144,-439,-136,-740r82,0","w":298},"m":{"d":"22,-31v52,-152,2,-389,107,-487v128,8,147,136,189,232v23,53,44,110,81,147v52,-152,59,-331,215,-379v67,6,65,77,109,109v50,122,-1,317,53,430v-3,32,-16,55,-53,55v-79,-93,-35,-288,-71,-423v-7,-23,-20,-44,-38,-62v-144,37,-110,248,-160,378v-147,-54,-171,-230,-256,-347v-20,-28,-42,-58,-69,-85v-53,146,1,380,-107,484r0,-52","w":798},"n":{"d":"429,-398v-112,109,-181,242,-235,409v-117,-59,-115,-235,-175,-351v56,-43,2,-180,59,-234v57,103,0,297,58,410v80,-76,105,-196,164,-288v17,-27,41,-48,70,-63v163,109,232,318,234,585r-58,0v-54,-147,-55,-334,-117,-468","w":674},"o":{"d":"179,-313v-60,54,-61,199,0,251r313,0v72,-72,181,-129,202,-252v3,-21,-2,-42,-13,-63v-116,-40,-280,-59,-397,-7v-38,17,-72,41,-105,71xm305,-502v239,-7,412,38,502,189v-7,122,-84,195,-159,255v-29,24,-60,43,-91,58v-141,2,-317,63,-441,0v-42,-43,-92,-83,-89,-167v1,-24,10,-52,26,-83v74,-33,79,-130,131,-182v29,-29,69,-25,121,-7r0,-63","w":832},"p":{"d":"151,-345v0,250,-40,468,21,679v-1,41,-26,58,-62,62v-60,-137,-67,-294,-58,-483v4,-93,-4,-172,-22,-258v42,-110,124,-193,265,-152v103,30,183,113,219,211v3,74,60,184,0,242v-96,49,-236,128,-363,62v111,-57,251,-68,304,-183v-4,-152,-78,-247,-183,-301v-69,6,-121,52,-121,121","w":580},"q":{"d":"57,-76v61,-172,148,-342,291,-434v54,4,89,41,95,94r-47,49v3,-56,-19,-66,-48,-95v-100,105,-201,224,-193,435v124,-79,195,-186,241,-340v37,42,88,78,95,148r-46,368v73,-37,225,-53,290,0r49,49v-94,47,-291,-90,-291,99v-20,18,-22,38,-30,59v-15,18,-29,6,-59,-5v-45,-192,38,-370,-8,-570v-49,96,-98,193,-196,241v-68,-8,-101,-61,-143,-98","w":571},"r":{"d":"72,-567v0,30,0,60,1,90v3,107,22,195,61,271v72,-144,119,-322,353,-301v55,5,122,7,127,60v-68,60,-163,-54,-240,0v-131,93,-184,258,-180,481v-140,2,-135,-143,-160,-256v-4,-19,-11,-33,-21,-42r0,-303r59,0","w":623},"s":{"d":"5,-300v115,-105,246,-227,455,-227v32,0,25,35,14,57v-12,23,-39,57,-71,57r0,-57v-131,3,-190,72,-284,114v174,43,394,22,503,135v24,25,46,54,65,92v-11,93,-68,166,-171,170v-73,60,-183,-12,-227,-56v-84,-1,-99,-102,-57,-171v57,58,81,162,175,182v16,3,34,-2,53,-11v78,2,132,-15,170,-57v43,-88,-52,-109,-102,-146v-8,-7,-12,-16,-12,-25v-139,-45,-313,20,-449,-17v-22,-6,-43,-21,-62,-40","w":711},"t":{"d":"18,-421v55,-62,201,-10,273,-58v-2,-151,17,-291,126,-334v5,106,-73,174,-40,279v6,16,17,32,32,49v56,-66,198,-101,289,-44v-99,56,-234,63,-337,115v3,169,99,276,109,437r-66,0v-63,-120,-63,-297,-111,-434v-98,6,-224,107,-275,-10","w":713},"u":{"d":"197,13v-138,-75,-212,-291,-164,-499v11,-46,54,-75,106,-45v-61,61,-62,181,-62,303r45,44v38,34,74,72,137,77v58,48,103,-32,135,-69v16,-19,30,-37,45,-52v6,-90,-61,-181,0,-241r62,0v35,72,29,171,66,241v26,49,61,87,113,121v0,60,63,58,62,120v0,32,-17,28,-38,15v-27,-18,-54,-58,-83,-77r-182,-120v-49,97,-101,181,-242,182","w":732},"v":{"d":"213,18v-102,-112,-209,-234,-201,-452v54,109,146,194,201,302v54,-183,137,-326,303,-403r0,49v-143,94,-196,277,-253,455","w":502},"w":{"d":"761,-547v6,221,-21,405,-139,512v-116,47,-189,-60,-234,-139v-34,38,-24,116,-52,162v-19,32,-44,57,-87,70r-69,-105v-68,-107,-129,-220,-163,-361r46,0r186,373v49,-101,42,-272,139,-326v52,118,60,283,234,280v48,-154,53,-347,139,-466","w":785},"x":{"d":"560,-53v-115,48,-166,-68,-249,-101v-53,58,-94,142,-149,199v-30,-37,14,-78,32,-106v27,-41,65,-81,69,-144r-250,-247r50,-50r66,66v55,56,97,110,134,183v65,-67,103,-170,175,-229v31,-26,71,-38,122,-20v-5,56,-92,43,-98,98r-101,151v45,94,155,105,199,200","w":587},"y":{"d":"473,-542v13,364,-198,517,-204,862v0,41,-36,16,-50,0v-47,-138,40,-230,50,-355v-99,-105,-227,-187,-258,-359v-5,-31,-3,-64,5,-98v79,-32,98,27,88,102v-3,23,-6,49,14,50v45,95,107,159,203,203v95,-90,97,-277,152,-405","w":513},"z":{"d":"698,-24v-191,-1,-353,46,-537,49v-53,-54,16,-116,49,-147v85,-81,135,-187,243,-243v-65,-85,-213,-50,-314,-27v-52,12,-96,9,-125,-22v137,-48,314,-97,488,-49v12,226,-188,266,-243,439v146,-49,342,-49,537,-49v0,49,-50,49,-98,49","w":665},"0":{"d":"718,-445v-61,-70,-178,-73,-304,-78v-48,-32,-80,-59,-140,-37v-51,19,-91,77,-130,115v-19,104,-47,252,22,318v72,69,152,71,233,1v135,-9,233,-90,287,-188v21,-39,32,-83,32,-131xm399,-636v172,8,317,72,382,191v43,153,-72,235,-164,299v-49,34,-100,57,-154,85v-64,63,-192,63,-319,63v-77,-76,-128,-194,-100,-341v26,-132,96,-234,171,-321v29,-33,67,-59,121,-38v21,8,42,30,63,62","w":824},"1":{"d":"265,-547v-81,30,-137,115,-234,91v5,-15,27,-30,38,-43r0,-48r0,48r244,-196r50,50v-96,136,-1,395,-50,587v102,-3,158,-79,245,-98v-81,126,-293,200,-489,148v-1,-27,3,-47,-21,-49v-7,-1,-16,-1,-29,-1v38,-46,111,-52,182,-36v27,6,49,4,64,-12v-52,-120,2,-300,0,-441","w":575},"2":{"d":"398,-550v-105,-46,-208,-49,-308,4r-78,0v77,-85,239,-149,404,-119v45,8,80,28,106,55v-66,244,-263,365,-368,570v74,2,116,-28,174,-49r294,-107r0,69r-227,91v-91,35,-189,67,-313,67v-60,-119,60,-188,102,-272v50,-100,152,-166,202,-267v7,-14,11,-28,12,-42","w":628},"3":{"d":"67,-486v0,-53,-54,-51,-52,-106v134,-65,319,-134,503,-82v51,15,97,42,136,82v-19,133,-166,157,-266,213v82,47,229,6,266,108v0,106,-52,159,-106,211v-72,41,-219,112,-267,0v73,1,123,-15,160,-53v36,-37,103,-45,145,-73v12,-8,17,-19,17,-33v-54,-107,-322,1,-322,-160v108,-52,214,-106,267,-213v-186,-61,-360,26,-481,106","w":685},"4":{"d":"230,-660v54,111,-60,200,-64,303v-4,93,170,91,226,50v106,-77,86,-278,139,-407r73,0v0,137,-59,233,-62,368r183,0v8,94,-73,90,-145,110v-112,31,-87,207,-169,273v-40,-62,-35,-157,-8,-226v3,-8,3,-17,4,-25v-91,-47,-216,30,-311,-21v-18,-10,-37,-24,-56,-41v8,-141,96,-215,150,-313","w":764},"5":{"d":"778,-724v-95,104,-253,115,-436,128v-83,6,-152,25,-210,65v61,157,271,173,364,299v28,39,41,87,24,152v-65,78,-187,94,-291,46v-32,-15,-65,-29,-97,-46r-63,-63v109,-41,190,57,287,71v58,8,82,-19,99,-71v-82,-126,-269,-159,-372,-263v-49,-50,-54,-111,-14,-189v94,-105,257,-120,453,-110v93,5,177,2,256,-19","w":823},"6":{"d":"511,-178v-28,-29,-61,-45,-104,-52v-34,36,-98,45,-139,73v-11,7,-17,17,-17,30v75,-3,162,7,227,-7v20,-4,33,-18,33,-44xm251,-697v36,0,47,21,52,52v43,0,14,37,0,52v-111,40,-198,121,-219,248v-6,38,-1,76,12,115r103,103v51,-102,154,-206,312,-155v63,-2,57,80,34,120v-32,57,-97,93,-138,139v-42,48,-154,-51,-156,52v-155,0,-155,-155,-207,-259v-40,-177,72,-302,152,-407v18,-24,38,-43,55,-60","w":588},"7":{"d":"383,-690v107,-39,215,-9,240,92v-1,177,-54,319,-55,496r55,0v-15,68,-93,101,-166,110v0,-217,111,-385,57,-606v-144,-88,-275,47,-414,64v-28,4,-55,2,-82,-7v9,-120,187,-59,275,-112v26,-16,57,-26,90,-37","w":670},"8":{"d":"201,-416v-35,38,-79,71,-75,144v1,21,9,44,22,71v6,113,99,157,214,161r40,-40v30,-34,63,-66,68,-121v-53,-108,-162,-161,-269,-215xm362,-577v-44,-52,-169,-53,-214,0v31,46,70,92,128,61v30,-17,49,-54,86,-61xm524,-255v4,130,-18,229,-108,269v-134,-5,-225,-63,-322,-108v-63,-58,-37,-195,0,-268r54,-108v-50,-4,-107,-29,-122,-68v-4,-13,1,-26,14,-39v106,-52,214,-162,376,-108v-10,94,67,64,108,108v-54,53,-162,53,-215,107v96,46,148,143,215,215","w":556},"9":{"d":"255,-637v-38,38,-97,70,-131,111v-11,12,-16,24,-16,36v106,3,175,-12,245,-49v-42,-31,-6,-152,-98,-98xm59,-441v-63,-2,-29,-77,0,-98v44,-74,117,-148,221,-159v58,-6,96,19,122,61r0,49r98,0v-7,279,-152,443,-196,686v-44,-226,94,-364,98,-588v-73,33,-132,98,-241,90v-31,-2,-65,-16,-102,-41","w":536},":":{"d":"61,-413v-4,-73,73,-134,131,-88v43,34,4,88,-43,88r-88,0xm226,-112v0,25,-10,50,-34,50v-16,16,-35,32,-59,32v-17,0,-27,-13,-27,-32v-46,-80,45,-93,86,-131v20,17,33,48,34,81","w":254},";":{"d":"200,-543v44,4,42,51,72,72v-2,46,-45,77,-72,107v-36,0,-75,0,-72,-36v4,-59,40,-107,72,-143xm259,-124v-40,72,-66,148,-128,202r-64,56r-14,-14r83,-158r11,-51r41,-49v25,7,59,-13,71,14","w":310},"<":{"d":"411,87v-54,1,0,-108,-53,-107v-80,-126,-186,-203,-321,-267r0,-53v127,-86,267,-188,361,-308v31,-39,54,-79,67,-119r53,0v-70,188,-221,320,-374,427v84,82,210,139,269,246v32,58,32,117,-2,181","w":532},"=":{"d":"302,-523v44,52,167,1,218,54r-55,55v-138,7,-302,49,-434,0v33,-99,224,-7,271,-109xm31,-251v85,-102,277,-58,434,-55v1,55,-54,55,-54,109v-91,-35,-212,-23,-321,-31v-26,-2,-46,-10,-59,-23","w":552},">":{"d":"575,-426r-93,136v-94,134,-197,259,-333,351v-46,-1,-74,-3,-69,-38v11,-30,46,-59,69,-84v136,-76,230,-227,304,-365v-168,-86,-322,-208,-426,-365","w":609},"?":{"d":"242,45v-69,39,-120,-27,-108,-111r170,0v2,55,-59,61,-62,111xm173,-593v-55,-42,-18,-129,18,-168v41,-46,131,-69,193,-25v47,20,111,36,110,101v59,226,-167,277,-303,370r30,165v-13,10,-43,41,-59,11v-53,-61,-18,-189,-91,-235r-13,-11v24,-28,39,-55,94,-50r25,54v91,-88,269,-108,256,-292v-51,-28,-105,-85,-189,-62v-27,33,-29,101,-59,128","w":541},"{":{"d":"441,-1010v2,54,-34,57,-73,68v-9,2,-14,9,-14,20v-92,63,-188,139,-223,254v-9,33,-8,65,3,98v52,46,169,40,220,87r-133,131v59,-4,177,-38,177,46v-89,43,-132,132,-177,219v-33,119,42,201,106,259v24,22,49,37,71,48v-44,44,-88,44,-132,0v-45,-93,-173,-158,-132,-307v33,-62,40,-129,87,-176r-87,0v-33,-58,5,-107,30,-142v9,-11,13,-23,13,-34r-131,-131v58,-209,176,-389,395,-440","w":470},"}":{"d":"225,-917v-74,1,-131,-2,-165,-40v3,-26,41,-19,72,-16v38,4,91,17,133,16r82,82v84,126,-7,299,-82,369v76,39,171,46,206,125v-27,36,-93,4,-124,40v139,66,163,370,55,491v-17,19,-34,34,-55,44v-48,46,-113,119,-205,83v-3,-43,-40,-93,0,-124r41,0r0,82v97,-7,150,-73,206,-123v39,-100,42,-230,0,-329v-25,-60,-102,-73,-145,-115v-13,-12,-19,-28,-19,-49v41,0,83,0,82,-42v-26,-26,-85,-16,-119,-34v-18,-10,-16,-26,-5,-49v50,-52,120,-109,124,-205v4,-99,-13,-175,-82,-206","w":535},"~":{"d":"638,-349v36,36,36,72,0,109v-69,-31,-38,-150,-108,-182v-175,-13,-217,179,-378,179v-61,0,-95,-27,-131,-70r0,-73v56,23,67,77,144,73v145,-7,169,-172,318,-172v25,0,52,9,83,27","w":700},",":{"d":"88,205r-27,-71r123,-273v66,21,64,93,30,148v-40,63,-93,127,-126,196","w":291},".":{"d":"260,-91v22,49,-23,103,-73,105v-43,39,-39,-41,-82,-42v6,-49,57,-48,82,-80v30,0,60,0,73,17","w":347},"\/":{"d":"460,-759v11,-24,63,-28,54,11r-460,804r-52,-51","w":430},"-":{"d":"85,-301v26,3,23,-23,23,-48v87,53,221,8,335,8v1,44,2,72,-45,72v-106,0,-221,39,-317,-2","w":529},"+":{"d":"219,-642v90,-7,57,93,51,152v39,42,131,20,174,63v10,10,21,22,30,39r-204,0v53,107,-10,227,-51,305r-50,-50v92,-33,55,-157,50,-255v-48,3,-111,25,-157,0v-17,-10,-33,-25,-46,-50v48,-95,124,53,203,0r0,-204","w":507},"*":{"d":"173,-600v-24,-63,-121,-55,-130,-131r32,-33r131,131v-3,-65,-12,-148,14,-202v11,-23,26,-43,51,-59v-4,76,-29,155,0,228v33,-28,27,-127,98,-98v-5,80,-73,103,-98,164v78,1,138,2,196,32v-36,62,-107,-33,-163,0v33,69,116,109,130,196v-40,31,-37,-48,-65,-65v-1,39,2,92,-33,97v-33,-65,-31,-164,-98,-195v-43,40,-95,109,-65,195r-65,0v1,-76,38,-138,65,-195v-44,-32,-143,-7,-163,-65v45,-30,110,34,163,0","w":487},"(":{"d":"418,-868v-60,60,-157,99,-162,215v-99,94,-165,306,-108,484v9,131,119,170,161,270r-107,-54v-93,-100,-182,-219,-160,-409v5,-46,24,-89,51,-129v58,-176,125,-339,270,-431"},")":{"d":"268,-635v61,324,-37,616,-208,779r-51,0v-39,-39,11,-50,51,-52v100,-135,177,-319,154,-555v-20,-201,-145,-319,-258,-431r-50,51v2,-35,-26,-62,-22,-94v1,-6,9,-9,22,-9v144,8,219,103,284,197","w":340},"\\":{"d":"439,-751v11,-22,64,-28,55,11r-459,803r-53,-52","w":463},"[":{"d":"48,130v21,-310,7,-635,79,-900v-15,-32,-34,-56,-19,-88v4,-9,20,-10,43,-5v97,-17,236,-35,340,-12v-14,100,-133,48,-221,59v-16,2,-29,12,-40,25v-84,-28,-27,93,-82,124v-62,221,-37,500,-45,766v83,23,180,-17,263,0v36,8,54,33,57,79v-59,33,-134,-33,-194,-1v-67,-24,-166,54,-181,-47","w":484},"]":{"d":"451,-892v-94,301,46,633,0,956v-88,93,-248,98,-383,143v-31,0,-43,-20,-46,-47v104,-85,287,-52,380,-144v44,-300,-142,-548,-47,-858r-48,0r-382,-50r0,-47"},"\u20ac":{"d":"617,-705v0,19,-35,17,-41,2r-18,-17v-133,8,-218,154,-279,253v152,31,287,85,468,86r5,27v-157,60,-328,-22,-487,-29v-20,43,2,80,4,125v139,-3,313,-24,367,68r14,22v-119,5,-241,-58,-347,-7v27,149,283,49,363,168r17,22r-121,-1v-112,-3,-206,-21,-284,-62r-62,-120v-58,-1,-87,-2,-120,-30v-35,-6,-17,-48,0,-60r91,0v5,-43,-33,-76,-36,-122v-34,7,-73,38,-109,18v-12,-7,-16,-21,-15,-41v27,-29,76,-38,129,-38v90,-151,251,-351,468,-302r-23,22v8,3,17,6,16,16","w":788},"B":{"d":"544,-237v-10,111,-92,170,-171,214v-72,-4,-161,45,-214,0v-17,-47,-80,-39,-123,-57v-19,-17,-15,-36,-4,-70r0,-385v71,-8,83,-83,120,-126v47,-54,148,-52,216,-12v38,22,69,53,90,96v1,128,-127,127,-212,170v111,47,239,66,298,170xm416,-577v-34,-35,-101,-44,-170,-43v-98,3,-90,107,-129,171v98,-43,267,-8,299,-128xm117,-364r0,256r42,-42v26,1,6,14,0,26v-10,19,-21,40,0,59r172,0v75,-40,125,-70,127,-172v-51,-87,-171,-97,-292,-111v-18,-3,-35,-9,-49,-16","w":576},"\u00f6":{"d":"90,-656v-28,-21,-3,-35,0,-63v41,-38,69,-21,95,31v-38,2,-58,30,-95,32xm374,-688v0,31,1,64,-31,64v-26,30,-66,2,-64,-32v-35,-35,11,-74,32,-95v36,3,63,27,63,63xm27,-214v0,-138,71,-225,158,-284v174,-1,325,27,385,142v17,32,41,87,22,132v-34,81,-117,121,-186,168v-52,57,-167,136,-253,64v-70,-58,-94,-126,-126,-222xm279,-403v-32,0,-31,-32,-63,-32v-90,58,-124,147,-126,285v30,62,94,125,189,94v121,-9,183,-95,253,-158v36,-87,-14,-139,-63,-189v-39,-39,-143,-26,-190,0","w":627},"\u00fc":{"d":"361,-778v2,55,-75,47,-99,16v-12,-15,-25,-32,-25,-56v45,-47,96,14,124,40xm195,-778v-29,8,2,63,-15,92v-12,21,-31,33,-68,32v-38,-38,-3,-114,0,-164xm402,-571v68,-1,80,59,80,124v67,95,75,253,178,311v19,11,42,16,70,16v6,47,-20,60,-41,83v-100,-7,-126,-95,-165,-165v-57,54,-92,135,-150,186v-16,14,-34,21,-55,21v-209,50,-275,-139,-294,-325v-7,-72,8,-132,47,-169r83,0v-78,64,-84,220,-43,329r125,123v107,-9,161,-90,204,-165v66,-114,-56,-190,-59,-307v0,-21,6,-41,20,-62","w":690},"#":{"d":"369,-676v30,30,2,90,0,129v79,2,168,13,204,-41v13,-19,22,-47,22,-88v35,12,32,40,23,73v5,58,113,28,155,56v11,6,16,17,16,33r-33,32v1,-61,-86,-35,-129,-32v-57,46,-35,156,-65,227v123,-1,228,-37,356,-33v-91,63,-233,65,-356,96v-33,39,3,107,0,162v-75,8,-65,-61,-64,-129v-81,-5,-184,-23,-227,33v2,42,29,129,-32,129r0,-162v-56,7,-144,21,-162,-33v31,-32,125,1,162,-32v33,-67,37,-151,65,-226v-102,0,-188,64,-291,33r0,-33v73,-43,223,3,297,-44v43,-27,45,-76,26,-150v11,11,17,18,29,12v3,-3,4,-7,4,-12xm433,-482v-130,-30,-97,130,-129,226r194,-31r33,-195r-98,0","w":891},"&":{"d":"256,-1088r0,224v3,41,47,72,32,117v-8,11,-24,16,-45,15v-55,-95,-82,-292,13,-356xm79,-37v-56,-91,-28,-241,39,-298r37,-76v-44,-38,-119,-89,-78,-171v54,-54,86,-128,201,-128v86,0,196,-22,224,51v-13,43,-55,54,-97,30v-22,-13,-45,-23,-79,-22v-72,-48,-172,30,-188,95v-4,18,-5,38,-5,59v69,72,270,-1,328,81r0,57v-85,-49,-229,-2,-292,38v-29,62,-78,152,-38,232v189,116,390,-60,576,-87r0,55v-150,53,-287,156,-494,133v-47,-5,-91,-23,-134,-49xm327,25v56,44,46,163,93,216r0,93r-56,0v0,-107,-89,-204,-37,-309","w":755},"%":{"d":"606,-748v-118,330,-339,569,-452,905v-30,2,-40,-3,-37,-37v140,-357,344,-661,526,-978v57,41,-33,68,-37,110xm43,-614v36,-34,37,-100,74,-134v78,43,223,33,223,152v0,66,-41,104,-89,127v-34,39,-109,75,-171,37v-37,-36,-37,-108,-37,-182xm117,-676v-10,61,-76,163,3,198v16,7,38,9,57,9v45,-46,106,-96,111,-182v-39,-25,-108,-25,-171,-25xm606,-332v65,33,140,41,171,108v-3,85,-81,100,-134,137v-30,35,-117,36,-148,0v-67,-19,-4,-144,-74,-171v26,-69,124,-40,185,-74xm569,-258r-74,109v-4,62,82,60,111,25v35,-27,88,-48,97,-100","w":818},"'":{"d":"120,-510v-1,22,23,46,6,60v-26,3,-48,-19,-77,-18v2,-98,-43,-197,0,-280v88,22,74,134,71,238","w":161},"\"":{"d":"227,-783v57,36,22,146,21,217v0,12,2,20,7,25v-1,27,5,47,-28,43v-48,-69,-78,-220,0,-285xm56,-455r-43,-43r0,-242v111,-3,61,143,49,224v-4,22,-6,42,-6,61","w":275},"\u00dc":{"d":"529,-819v-50,0,-50,50,-99,51v-50,-50,-50,-100,0,-150v86,-10,57,63,99,99xm230,-874v55,-12,51,55,50,106v-57,6,-73,-25,-99,-51v0,-25,28,-50,49,-55xm580,-431v98,115,-57,445,198,447v-23,48,-53,73,-112,57v-12,-4,-25,-6,-38,-6v-51,-60,-97,-140,-99,-249v-63,85,-113,190,-245,190v-32,0,-69,-11,-103,-40v-108,-93,-144,-309,-85,-484v20,-59,48,-115,85,-164v-6,203,-89,470,48,597v130,-11,192,-110,249,-198v56,-87,27,-241,32,-367v2,-48,18,-84,70,-83v50,71,-3,204,0,300","w":719},"\u00e7":{"d":"248,199v-76,-38,2,-125,0,-192v-81,-39,-172,-51,-230,-116v0,-116,39,-193,78,-270v108,-67,245,-153,422,-115v-3,27,11,90,-24,68v-13,-8,-33,-29,-53,-28v-168,0,-280,81,-345,191v-48,81,10,171,75,192v145,46,236,-40,347,-75r39,0v-72,72,-199,79,-270,153v77,0,154,0,154,77v20,38,41,91,5,124v-14,12,-42,39,-72,22v-25,-14,-46,-36,-48,-71r75,-38r-37,-37","w":577},"\u00d6":{"d":"252,-929v68,23,41,104,14,148v-22,22,0,74,-39,61v-8,-3,-15,-9,-24,-18v-50,1,-51,-47,-51,-96v0,-55,95,-40,100,-95xm452,-785v5,-55,39,-151,-49,-144v0,49,-51,47,-51,95v27,27,57,44,100,49xm273,-8v-165,0,-205,-117,-251,-238v-5,-184,31,-315,151,-381v68,-37,202,-100,249,0v81,40,178,92,224,167v69,113,-6,289,-75,356v-70,67,-174,152,-298,96xm422,-55v102,-55,149,-180,149,-334v0,-166,-169,-190,-298,-238v-37,81,-160,60,-151,190v-46,95,-4,234,51,286v37,81,130,99,249,96","w":688},"C":{"d":"30,-313v85,-154,232,-301,386,-387v89,-3,148,18,192,65v-165,-41,-266,75,-348,166v-41,45,-76,105,-102,156v64,192,322,191,514,256r193,0v0,64,-64,64,-128,64v-334,-3,-591,-95,-707,-320","w":882},"D":{"d":"662,-336v-54,241,-340,248,-525,358r-50,-57v-96,-164,-5,-453,-57,-667v278,57,508,147,632,366xm87,-603r50,519r179,-40v118,-29,230,-67,232,-212v-88,-151,-232,-267,-461,-267","w":685},"E":{"d":"123,-615v184,-6,331,-96,515,-102r0,52v-179,3,-315,58,-459,98r0,200v131,-10,264,-97,407,-45v-177,46,-380,62,-463,206v27,28,62,45,56,105v137,76,256,-43,385,-60v25,-3,49,-1,74,8v-135,87,-293,215,-515,147v-96,-30,1,-240,-94,-298v32,-40,72,-81,59,-160v-10,-59,-21,-132,35,-151","w":670},"F":{"d":"521,-655v-167,2,-282,64,-329,189r0,137v100,-4,167,-103,272,-47v-52,52,-153,50,-221,88v-82,45,-15,168,0,238r0,86v-81,-19,-85,-104,-111,-176v-11,-30,-34,-49,-78,-48r0,-43r96,-57r0,-308v124,-42,217,-137,384,-128v26,1,51,12,75,27v4,55,-19,69,-56,49v-11,-5,-21,-7,-32,-7","w":592},"G":{"d":"554,-148v-109,5,-91,144,-198,152v-145,48,-207,-59,-260,-152v-50,-87,-101,-208,-56,-323v28,-72,91,-116,146,-168v75,-71,202,-153,319,-74r0,49v-124,-51,-258,15,-296,111v-57,49,-99,96,-117,147v-57,162,84,265,164,359v154,42,182,-121,249,-211v-97,-94,-242,59,-357,0v65,-44,163,-86,258,-98v89,-38,179,23,197,98v1,115,63,262,0,358v-72,-29,-34,-135,-35,-216v-1,-13,-6,-24,-14,-32","w":656},"H":{"d":"91,-727v59,62,54,205,56,323v91,51,209,2,316,0v4,-90,-51,-205,0,-272r50,0v58,159,-44,406,62,546r-62,49v-58,-64,-55,-189,-99,-269r-267,51r0,325v-107,-41,-1,-266,-112,-325v84,-71,38,-235,40,-367v1,-23,7,-44,16,-61","w":606},"I":{"d":"241,-522v-64,5,-118,73,-187,38v-12,-7,-23,-19,-32,-38v165,-121,430,-127,616,-229r0,57v-72,58,-194,60,-279,107v-52,116,-54,280,-54,447v79,2,146,-27,223,-22v19,2,35,9,48,22v-71,48,-181,59,-244,112v-18,15,-27,36,-27,62v-61,4,-63,-104,-122,-53v-34,-3,-42,27,-73,23v-7,-2,-17,-10,-30,-23v9,-51,72,-54,111,-80v18,-12,35,-24,50,-41r0,-382","w":655},"J":{"d":"224,-140v-1,88,89,135,166,92v57,-32,95,-95,138,-138v54,-170,-64,-270,-103,-406r-219,72v-60,17,-122,34,-189,35r203,-84v190,-74,400,-159,666,-122r0,51r-358,48v8,135,98,257,54,406v-3,113,-96,148,-157,203v-81,1,-158,-8,-201,-48v-55,1,-50,-55,-51,-109r51,0","w":900},"K":{"d":"18,-714v87,-6,50,94,50,153r0,163v163,-5,240,-107,328,-189v46,-44,90,-92,144,-127r49,53r-356,263v73,193,286,243,475,318v34,14,64,30,91,49r0,49r-185,-68v-183,-68,-348,-140,-500,-244v-49,65,6,172,0,263r54,0v-1,34,-23,46,-54,49v-109,-136,-80,-386,-82,-618v-1,-40,-5,-79,-14,-114","w":833},"L":{"d":"677,2v-177,56,-403,1,-599,0r-57,-56v109,-175,60,-494,175,-669v1,226,-1,431,-62,594v164,69,366,77,543,131","w":705},"M":{"d":"376,-121v160,-146,63,-535,273,-631r62,60v2,209,-63,446,0,629v0,31,2,49,-27,51v-8,1,-20,1,-35,1v-48,-158,-51,-367,-51,-571v-53,192,-11,470,-222,519v-106,-96,-176,-211,-236,-348v-54,133,51,366,-56,455r-58,0v0,-70,0,-138,1,-202v3,-196,15,-376,57,-534v96,38,105,153,166,222v6,146,71,247,126,349","w":741},"N":{"d":"175,-473v3,203,-16,392,-102,513v-32,-3,-53,-15,-54,-50r156,-668r151,307r109,208v98,-132,4,-424,104,-575r0,60v6,222,37,464,-54,621v-151,-96,-212,-268,-310,-416","w":574},"O":{"d":"629,-425v70,129,-15,268,-64,361v-58,59,-189,109,-289,53v-111,-4,-183,-68,-222,-146v-13,-28,-20,-57,-20,-86v-46,-144,52,-233,70,-357v3,-20,-1,-40,-10,-60v63,-48,164,-51,240,-16r73,32v46,20,96,42,158,42xm276,-602v-117,59,-176,192,-182,359v41,85,109,167,211,190v30,6,60,2,89,-11v31,0,59,-15,86,-45v27,-30,56,-75,85,-134v4,-56,32,-132,3,-187v-11,-21,-30,-40,-61,-55v-37,-84,-115,-118,-231,-117","w":677},"P":{"d":"20,-232v43,-80,-7,-229,45,-311v42,-67,74,-164,189,-161v23,1,51,8,82,22v30,39,81,69,112,106v77,148,-64,254,-167,303r-176,83v52,57,39,146,0,221v-80,-36,-38,-195,-85,-263xm193,-631v-79,73,-90,206,-88,358r134,0v44,-53,117,-103,156,-163v14,-21,22,-42,22,-64v-40,-77,-113,-127,-224,-131","w":492},"Q":{"d":"321,-696v126,-5,196,69,251,141v44,58,83,132,64,232r-110,175v50,82,109,150,162,228v-119,-1,-145,-130,-214,-187v-68,54,-156,142,-275,93v-90,-37,-133,-127,-157,-227v-37,-152,49,-258,81,-379v46,-42,118,-73,198,-76xm223,-631r17,22v-104,58,-165,184,-138,351v19,113,71,208,208,184v39,-7,72,-26,94,-51v12,-90,-112,-69,-146,-128v68,-82,171,25,244,41v59,-50,100,-157,64,-256v-43,-119,-186,-224,-343,-163","w":677},"R":{"d":"11,-284v62,-79,8,-257,53,-350v216,12,408,44,507,176v-35,137,-174,178,-298,227v80,118,285,107,362,227v-190,-31,-331,-121,-460,-216v-27,5,-69,-11,-76,17v-18,72,70,159,0,210v-76,-59,-27,-219,-88,-291xm116,-563r0,197v43,17,19,49,0,69v-6,7,-8,15,-5,24r18,0v10,-47,48,-53,85,-30v33,20,86,36,113,-4v55,-25,130,-47,158,-100v10,-17,11,-39,4,-64v-103,-60,-219,-91,-373,-92","w":658},"S":{"d":"32,-501v46,-146,212,-155,360,-199v71,8,107,60,149,98v-13,23,-16,40,-37,45v-37,-12,-58,-45,-112,-45v-140,0,-238,25,-306,101r131,27v224,49,435,114,486,336v1,89,-48,116,-112,150v-226,-5,-366,-110,-559,-150v199,-1,358,95,559,46v34,1,63,-4,42,-30v-16,-20,-39,-38,-42,-69v-72,-137,-214,-177,-381,-215v-73,-16,-132,-44,-178,-95","w":729},"T":{"d":"550,-652v127,57,335,-1,462,60r-58,66r-404,0v-2,184,21,361,112,459v-38,-3,-46,26,-80,23v-8,-2,-19,-9,-32,-23v-59,-134,-60,-317,-114,-459v-131,9,-302,103,-404,0v156,-64,358,-67,518,-126","w":1046},"U":{"d":"505,-656r-5,255v0,201,40,362,181,425v-56,65,-132,-7,-159,-50v-31,-51,-66,-109,-72,-181v-72,36,-126,109,-222,109v-131,0,-188,-121,-203,-242v-9,-73,9,-143,32,-193r0,-65v117,49,-1,234,53,342v31,61,96,107,182,82v19,-6,35,-18,48,-33v110,-58,96,-217,96,-381v0,-25,5,-47,14,-68r55,0","w":569},"V":{"d":"633,-697v-53,207,-111,412,-113,666v-34,-1,-42,29,-78,23v-10,-2,-24,-10,-42,-23v-95,-197,-279,-318,-354,-535v-14,-41,-21,-84,-21,-131v129,15,93,195,160,279r215,271v78,-135,105,-301,166,-447v17,-40,39,-75,67,-103","w":655},"W":{"d":"671,-141v90,-152,186,-316,192,-550v26,-20,43,-51,75,-28v7,6,17,15,29,28v-102,197,-154,440,-246,645v-152,-9,-137,-191,-192,-298v-98,74,-69,262,-153,351v-142,-197,-252,-411,-352,-650r51,0v99,191,159,402,301,549v45,-100,43,-248,90,-347v142,31,123,209,205,300","w":950},"X":{"d":"275,-261v-87,-95,-199,-200,-199,-363v0,-40,36,-14,50,0r44,0r-44,53v49,67,94,145,149,205v109,-54,120,-192,199,-274v15,-14,34,-25,58,-33r-145,359v11,82,107,102,135,166v20,45,-7,64,-42,92v-38,-41,-68,-107,-113,-142v-15,-12,-30,-18,-47,-18v-93,108,-145,262,-297,310","w":553},"Y":{"d":"90,-765v-44,190,57,319,162,412v43,38,91,68,144,93r145,-408r52,0v-58,234,-187,430,-197,713v-1,35,-23,55,-63,55v-46,-90,61,-171,0,-263r-77,-79v-98,-109,-200,-222,-226,-402v-5,-39,-3,-79,4,-121r56,0","w":608},"Z":{"d":"25,-613v-7,-99,99,-57,165,-57r392,0v49,133,-105,163,-110,281v-111,56,-164,168,-215,285v254,51,522,-64,769,0v-3,31,-18,52,-53,52v-71,0,-142,0,-211,1v-69,1,-139,3,-208,6v-147,7,-285,21,-420,47v131,-184,233,-404,338,-615v-135,-53,-297,65,-447,0","w":1053},"|":{"d":"151,-1169r0,3v102,470,53,1068,107,1590r-62,0r-1,-4v-13,-130,-23,-257,-30,-382r-43,-754v-8,-129,-19,-262,-32,-397r0,-56r61,0","w":375},"\u00c7":{"d":"578,237v-1,-46,-4,-72,-31,-101v-53,-3,-64,70,-113,38v-45,-9,-43,-78,-43,-133v19,1,33,-3,36,-19r-107,-29v-110,-30,-223,-86,-266,-166v5,-132,69,-213,115,-306v58,-72,173,-159,285,-71r-56,56v-12,-32,-37,-50,-76,-29v-33,18,-69,40,-102,59v-76,72,-140,175,-74,284v87,93,263,151,437,110v46,-43,83,-79,150,-112r11,16v-75,79,-143,214,-296,193r0,51v35,-11,81,-30,109,3v66,30,82,103,78,200v-29,30,-84,88,-129,40v-27,-30,-78,-31,-77,-88v46,-28,88,12,115,35v22,12,24,-11,34,-31","w":783},"^":{"d":"327,-752v108,48,181,149,271,219v-22,20,-57,41,-78,12v-19,-28,-33,-61,-62,-80v-40,-68,-64,-113,-134,-87v-107,39,-158,162,-262,206r-43,-4r4,-45","w":610},"_":{"d":"24,8v270,40,497,-75,777,-36r0,91r-777,0r0,-55","w":841},"@":{"d":"745,-35v4,17,18,23,38,21r0,52v-151,98,-439,189,-634,76v-91,-22,-119,-137,-78,-232v118,-277,358,-452,660,-550v99,-32,156,43,194,111v75,78,42,245,1,338v-35,80,-104,143,-181,184xm783,-336v-1,126,-134,139,-146,253v63,26,129,-41,164,-74v83,-78,151,-233,70,-357v0,-66,-59,-125,-133,-100v-275,91,-498,253,-611,502v-9,60,-22,150,31,171v95,68,280,65,397,9v39,-18,77,-37,114,-62r-46,0v-31,-28,-41,-58,-43,-106v-79,24,-157,109,-254,65v2,-220,131,-321,223,-453v91,1,193,2,213,74v-2,21,-21,27,-17,53v12,2,27,13,38,25xm690,-398v-46,-26,-82,-6,-126,2v-1,11,3,28,-3,34v-65,67,-110,145,-176,212r28,26v68,-1,139,-34,207,-106v36,-38,50,-111,102,-131v-18,-4,-29,-20,-32,-37","w":1027},"\u0131":{"d":"34,-516v12,-55,61,-67,115,-46v46,17,105,37,160,16v70,-27,129,26,122,100r-40,449v-23,2,-32,22,-60,13v-44,-107,41,-198,24,-319v-11,-83,18,-214,-100,-190","w":469},"`":{"d":"258,-768r0,22r-194,126v-23,-8,-21,-37,0,-48v63,-32,115,-84,178,-116","w":318},"$":{"d":"464,-988v26,3,44,16,44,46r0,266v50,27,125,4,185,4v39,0,47,49,33,80v-8,7,-21,4,-39,5v-8,-47,-81,-42,-134,-44v-38,62,-10,155,0,222v171,60,323,154,401,312v-7,60,-35,121,-89,134r-178,-45v-35,28,16,96,-14,126v-5,5,-16,7,-31,7v-33,-61,-39,-150,-82,-199v-13,-15,-30,-23,-52,-23v5,105,84,162,89,268r-44,0v-92,-141,-177,-304,-179,-535v-102,-44,-277,-8,-311,-133v62,-62,192,-70,245,-139v34,-43,11,-82,-22,-129r0,-45v70,29,24,164,110,184v16,4,39,2,68,-5v3,-121,-46,-257,0,-357xm464,-587r-90,0v39,39,8,148,55,183v8,4,20,2,35,-5r0,-178xm286,-543r-134,90v63,5,115,39,178,44v-1,-53,3,-125,-44,-134xm508,-320v-44,0,-44,-44,-88,-44v3,115,25,214,133,222xm553,-320r89,223v37,34,105,64,176,63v20,-1,36,-7,47,-18v-18,-163,-181,-215,-312,-268","w":1010},"!":{"d":"104,-121v60,-49,165,4,144,85v-3,15,-16,28,-37,39v-51,2,-110,6,-117,-43v8,-25,-10,-64,10,-81xm157,-40v27,6,42,-10,44,-32v-16,-28,-49,-15,-51,12v-1,8,2,15,7,20xm147,-844r34,520v-14,12,-26,30,-52,28r-26,-40r0,-508r44,0","w":309}}});
/*!
 * The following copyright notice may not be removed under any circumstances.
 * 
 * Copyright:
 * Copyright (c) 2009 by Michael Tension. All rights reserved.
 * 
 * Trademark:
 * 3dumb is a trademark of Michael Tension.
 * 
 * Description:
 * Copyright (c) 2009 by Michael Tension. All rights reserved.
 * 
 * Manufacturer:
 * Michael Tension
 */
Cufon.registerFont({"w":519,"face":{"font-family":"3dumb","font-weight":400,"font-stretch":"normal","units-per-em":"1000","panose-1":"0 0 0 0 0 0 0 0 0 0","ascent":"750","descent":"-250","x-height":"74","cap-height":"162","bbox":"-39 -1190 937 510","underline-thickness":"50","underline-position":"-50","unicode-range":"U+0020-U+20AC"},"glyphs":{" ":{"w":431},"\u00a0":{"w":431},"4":{"d":"424,17v-45,-13,-112,14,-147,-14v-11,10,-28,40,-29,58v58,0,102,29,161,15xm497,-246r-59,0r0,44v35,-1,45,-2,59,-29r-15,0xm234,32v13,-14,23,-38,43,-44r0,-277r-43,58v-16,89,29,178,0,263xm131,-260v25,0,52,2,73,14v35,0,45,-34,59,-58v-43,-1,-88,0,-117,-15v-39,-8,-100,-34,-117,15v12,34,80,15,102,44xm277,-450v47,14,31,-52,59,-73v-30,14,-44,44,-59,73xm175,-654v-29,28,-58,74,-87,102v-14,68,-41,125,-44,204v55,-93,86,-203,131,-306xm438,-538v-34,-3,-91,-22,-87,30v-16,29,-14,58,-30,87v-21,-27,-48,-1,-58,15v-3,-27,-47,-6,-59,-29v15,-44,33,-85,50,-127v17,-42,30,-85,38,-136r-29,0v-90,-15,-72,90,-102,146v-18,66,-70,110,-73,190v61,14,113,43,189,43v17,0,28,-29,44,-14v-13,83,-29,170,-29,263v0,33,20,39,29,58v32,16,77,-1,117,0v-28,-37,-1,-113,-14,-160v-20,0,-16,-3,-30,-15r0,-15v36,15,33,-28,30,-58r87,-15v39,-33,31,-102,44,-160r-117,43v-11,-59,27,-97,0,-146xm204,-216v-39,-29,-96,-44,-160,-44v-8,-16,-22,-20,-39,-23v-3,-1,-5,-3,-5,-6v30,-73,43,-162,58,-249v56,-54,77,-134,146,-175v42,-1,87,0,117,-14v-14,105,-73,172,-87,277v43,29,29,-45,58,-58v30,-14,44,-29,59,-59v37,15,92,1,116,29r0,103v38,13,66,-29,103,-15v-15,59,-2,139,-30,190v-43,15,-33,119,-102,73v28,56,-11,147,29,190v-1,14,1,30,-14,29v-9,25,-29,39,-29,73v-75,0,-133,-27,-205,-29v-15,-36,0,-76,0,-117v0,-59,-16,-116,-15,-175xm424,17v-45,-13,-112,14,-147,-14v-11,10,-28,40,-29,58v58,0,102,29,161,15xm497,-246r-59,0r0,44v35,-1,45,-2,59,-29r-15,0xm234,32v13,-14,23,-38,43,-44r0,-277r-43,58v-16,89,29,178,0,263xm131,-260v25,0,52,2,73,14v35,0,45,-34,59,-58v-43,-1,-88,0,-117,-15v-39,-8,-100,-34,-117,15v12,34,80,15,102,44xm277,-450v47,14,31,-52,59,-73v-30,14,-44,44,-59,73xm175,-654v-29,28,-58,74,-87,102v-14,68,-41,125,-44,204v55,-93,86,-203,131,-306xm438,-538v-34,-3,-91,-22,-87,30v-16,29,-14,58,-30,87v-21,-27,-48,-1,-58,15v-3,-27,-47,-6,-59,-29v15,-44,33,-85,50,-127v17,-42,30,-85,38,-136r-29,0v-90,-15,-72,90,-102,146v-18,66,-70,110,-73,190v61,14,113,43,189,43v17,0,28,-29,44,-14v-13,83,-29,170,-29,263v0,33,20,39,29,58v32,16,77,-1,117,0v-28,-37,-1,-113,-14,-160v-20,0,-16,-3,-30,-15r0,-15v36,15,33,-28,30,-58r87,-15v39,-33,31,-102,44,-160r-117,43v-11,-59,27,-97,0,-146xm204,-216v-39,-29,-96,-44,-160,-44v-8,-16,-22,-20,-39,-23v-3,-1,-5,-3,-5,-6v30,-73,43,-162,58,-249v56,-54,77,-134,146,-175v42,-1,87,0,117,-14v-14,105,-73,172,-87,277v43,29,29,-45,58,-58v30,-14,44,-29,59,-59v37,15,92,1,116,29r0,103v38,13,66,-29,103,-15v-15,59,-2,139,-30,190v-43,15,-33,119,-102,73v28,56,-11,147,29,190v-1,14,1,30,-14,29v-9,25,-29,39,-29,73v-75,0,-133,-27,-205,-29v-15,-36,0,-76,0,-117v0,-59,-16,-116,-15,-175","w":578},"5":{"d":"332,-8v-70,1,-121,31,-191,32v-26,1,-50,-31,-63,0v-3,20,-28,27,-31,48v116,-2,210,-36,285,-80xm95,-150r-33,32r-15,158v52,-33,53,-109,48,-190xm253,-198v59,-1,107,-34,105,-92v-1,-14,-9,-28,-26,-35v-72,-28,-146,-63,-237,-63v-16,16,-48,15,-48,47r48,0v65,35,140,62,158,143xm475,-563v-65,8,-169,-33,-159,63v31,-15,80,-15,111,0v18,-18,46,-29,48,-63xm47,-388v16,-16,48,-16,48,-48v0,-108,45,-166,63,-254r-96,127v1,64,-16,110,-15,175xm285,-420v-2,-17,-27,-26,-10,-41v2,-9,-8,-12,-7,-22v32,-16,32,-64,48,-96v54,-15,118,-1,175,0r0,-126v-91,16,-207,0,-302,15r-25,50v-22,48,-50,102,-38,173v-15,10,-16,42,-16,63v48,0,79,16,127,16v52,35,160,31,142,126v-12,65,-78,81,-142,96v-29,-16,-82,0,-111,-16v-1,71,0,114,-16,174v13,15,24,17,48,17v70,-30,165,-19,221,-64v59,-47,125,-87,127,-190v17,-77,-5,-138,-48,-175v-39,-34,-128,-16,-173,0xm443,-721v20,14,60,0,79,16v1,53,-18,100,-16,159v-36,17,-50,50,-79,79v-25,-29,-81,-17,-127,-16r0,31v71,-18,168,-8,191,48v53,55,39,165,15,238v-45,77,-105,128,-174,175v-72,49,-169,78,-270,94v-12,-26,-36,-6,-42,7v-7,2,-4,-9,-5,-22v17,-64,15,-127,32,-191r-16,-15v31,-19,72,-38,79,-80v12,-14,31,-1,48,0r63,0v-5,-75,-81,-92,-126,-127v-24,16,-69,-14,-80,17v-6,-10,-17,-2,-16,-17v32,-64,31,-159,48,-238r111,-158v90,16,190,1,285,0xm332,-8v-70,1,-121,31,-191,32v-26,1,-50,-31,-63,0v-3,20,-28,27,-31,48v116,-2,210,-36,285,-80xm95,-150r-33,32r-15,158v52,-33,53,-109,48,-190xm253,-198v59,-1,107,-34,105,-92v-1,-14,-9,-28,-26,-35v-72,-28,-146,-63,-237,-63v-16,16,-48,15,-48,47r48,0v65,35,140,62,158,143xm475,-563v-65,8,-169,-33,-159,63v31,-15,80,-15,111,0v18,-18,46,-29,48,-63xm47,-388v16,-16,48,-16,48,-48v0,-108,45,-166,63,-254r-96,127v1,64,-16,110,-15,175xm285,-420v-2,-17,-27,-26,-10,-41v2,-9,-8,-12,-7,-22v32,-16,32,-64,48,-96v54,-15,118,-1,175,0r0,-126v-91,16,-207,0,-302,15r-25,50v-22,48,-50,102,-38,173v-15,10,-16,42,-16,63v48,0,79,16,127,16v52,35,160,31,142,126v-12,65,-78,81,-142,96v-29,-16,-82,0,-111,-16v-1,71,0,114,-16,174v13,15,24,17,48,17v70,-30,165,-19,221,-64v59,-47,125,-87,127,-190v17,-77,-5,-138,-48,-175v-39,-34,-128,-16,-173,0xm443,-721v20,14,60,0,79,16v1,53,-18,100,-16,159v-36,17,-50,50,-79,79v-25,-29,-81,-17,-127,-16r0,31v71,-18,168,-8,191,48v53,55,39,165,15,238v-45,77,-105,128,-174,175v-72,49,-169,78,-270,94v-12,-26,-36,-6,-42,7v-7,2,-4,-9,-5,-22v17,-64,15,-127,32,-191r-16,-15v31,-19,72,-38,79,-80v12,-14,31,-1,48,0r63,0v-5,-75,-81,-92,-126,-127v-24,16,-69,-14,-80,17v-6,-10,-17,-2,-16,-17v32,-64,31,-159,48,-238r111,-158v90,16,190,1,285,0","w":543},"6":{"d":"299,-224v-16,22,5,50,14,71v1,18,36,30,58,29r0,-57v-17,-18,-24,-62,-61,-45v-4,1,-8,2,-11,2xm385,-124v18,0,40,1,42,-15v27,-38,29,-64,15,-114v-27,-15,-72,-15,-100,0v22,35,72,77,43,129xm286,-153v-13,-43,-30,-136,50,-113v17,0,28,-3,35,-16v35,0,59,1,85,15v14,24,31,67,15,99v-12,24,-24,57,-57,58v-12,13,-45,0,-43,29v-19,-32,-72,-31,-85,-72xm128,-410v-43,72,-70,157,-85,257v-29,36,15,73,0,114v47,56,82,136,185,128v102,15,149,-41,199,-99v-44,28,-116,51,-173,18v-35,-20,-72,-46,-97,-75v-66,-76,-48,-230,-29,-343xm427,-581v-65,28,-94,99,-114,171v19,-13,27,-35,43,-52v30,-33,69,-60,71,-119xm385,-396v-18,18,-38,41,-72,43v-15,7,-22,42,-42,15v20,-123,65,-235,171,-271v37,-13,3,-44,14,-71r-29,-15v-149,11,-192,143,-255,243r13,0r-28,29v-40,117,-31,301,41,371v38,37,94,72,166,52v74,-20,123,-71,164,-124v38,-50,58,-101,42,-185v-37,-53,-104,-86,-185,-87xm414,-709v24,-4,49,-8,57,14v0,43,15,71,14,114v-54,-20,-47,75,-81,103v-8,10,-19,19,-33,26v-29,26,-38,54,-72,71r0,14v53,-21,132,-71,197,-25v35,25,65,61,89,96v16,56,-2,115,-15,157r-213,228v-63,14,-157,30,-214,0v-48,-51,-126,-83,-114,-185v-30,-69,19,-136,29,-200v25,-53,30,-119,85,-142v61,-114,123,-246,271,-271xm299,-224v-16,22,5,50,14,71v1,18,36,30,58,29r0,-57v-17,-18,-24,-62,-61,-45v-4,1,-8,2,-11,2xm385,-124v18,0,40,1,42,-15v27,-38,29,-64,15,-114v-27,-15,-72,-15,-100,0v22,35,72,77,43,129xm286,-153v-13,-43,-30,-136,50,-113v17,0,28,-3,35,-16v35,0,59,1,85,15v14,24,31,67,15,99v-12,24,-24,57,-57,58v-12,13,-45,0,-43,29v-19,-32,-72,-31,-85,-72xm128,-410v-43,72,-70,157,-85,257v-29,36,15,73,0,114v47,56,82,136,185,128v102,15,149,-41,199,-99v-44,28,-116,51,-173,18v-35,-20,-72,-46,-97,-75v-66,-76,-48,-230,-29,-343xm427,-581v-65,28,-94,99,-114,171v19,-13,27,-35,43,-52v30,-33,69,-60,71,-119xm385,-396v-18,18,-38,41,-72,43v-15,7,-22,42,-42,15v20,-123,65,-235,171,-271v37,-13,3,-44,14,-71r-29,-15v-149,11,-192,143,-255,243r13,0r-28,29v-40,117,-31,301,41,371v38,37,94,72,166,52v74,-20,123,-71,164,-124v38,-50,58,-101,42,-185v-37,-53,-104,-86,-185,-87xm414,-709v24,-4,49,-8,57,14v0,43,15,71,14,114v-54,-20,-47,75,-81,103v-8,10,-19,19,-33,26v-29,26,-38,54,-72,71r0,14v53,-21,132,-71,197,-25v35,25,65,61,89,96v16,56,-2,115,-15,157r-213,228v-63,14,-157,30,-214,0v-48,-51,-126,-83,-114,-185v-30,-69,19,-136,29,-200v25,-53,30,-119,85,-142v61,-114,123,-246,271,-271","w":603},"7":{"d":"137,76v48,17,105,-14,154,0v51,-16,79,-33,108,-76v-114,-5,-219,0,-262,76xm137,45v18,-16,47,-27,48,-61v47,-142,131,-262,183,-399v-35,17,-48,68,-92,76v0,17,15,35,0,47r-16,0v-58,99,-75,230,-123,337xm45,-353v73,-15,170,1,246,-15r108,-108v-84,17,-188,17,-276,30v-19,26,31,47,0,62v-14,-8,-18,-22,-16,-45xm123,-660r-92,108v-1,61,-16,127,0,184v54,-45,92,-97,83,-203v-3,-33,-2,-65,9,-89xm659,-660v-25,-5,-52,-7,-61,15v-20,17,-49,-3,-62,-15v-141,16,-236,-46,-382,-31v-15,73,-32,142,-31,231v89,-31,219,-15,307,-47r30,16v-12,11,-26,30,-46,31v-69,142,-153,282,-199,444v66,-1,144,1,199,-14v87,-127,107,-310,184,-446v15,-68,23,-137,61,-184xm123,-691v0,-8,5,-15,14,-15v157,-14,287,41,443,34v39,-2,86,-19,110,12v-71,63,-70,184,-107,276v-54,137,-91,259,-153,384r-108,93v-75,-17,-153,14,-230,0v-15,-19,14,-29,15,-48v57,-110,78,-246,138,-352v-1,-15,1,-33,-15,-32v-62,0,-128,-14,-185,0v0,10,7,16,17,16v-19,3,-24,-8,-31,-16r-17,16v0,-77,-12,-157,0,-229v44,-44,90,-88,123,-139r-14,0xm137,76v48,17,105,-14,154,0v51,-16,79,-33,108,-76v-114,-5,-219,0,-262,76xm137,45v18,-16,47,-27,48,-61v47,-142,131,-262,183,-399v-35,17,-48,68,-92,76v0,17,15,35,0,47r-16,0v-58,99,-75,230,-123,337xm45,-353v73,-15,170,1,246,-15r108,-108v-84,17,-188,17,-276,30v-19,26,31,47,0,62v-14,-8,-18,-22,-16,-45xm123,-660r-92,108v-1,61,-16,127,0,184v54,-45,92,-97,83,-203v-3,-33,-2,-65,9,-89xm659,-660v-25,-5,-52,-7,-61,15v-20,17,-49,-3,-62,-15v-141,16,-236,-46,-382,-31v-15,73,-32,142,-31,231v89,-31,219,-15,307,-47r30,16v-12,11,-26,30,-46,31v-69,142,-153,282,-199,444v66,-1,144,1,199,-14v87,-127,107,-310,184,-446v15,-68,23,-137,61,-184xm123,-691v0,-8,5,-15,14,-15v157,-14,287,41,443,34v39,-2,86,-19,110,12v-71,63,-70,184,-107,276v-54,137,-91,259,-153,384r-108,93v-75,-17,-153,14,-230,0v-15,-19,14,-29,15,-48v57,-110,78,-246,138,-352v-1,-15,1,-33,-15,-32v-62,0,-128,-14,-185,0v0,10,7,16,17,16v-19,3,-24,-8,-31,-16r-17,16v0,-77,-12,-157,0,-229v44,-44,90,-88,123,-139r-14,0","w":676},"8":{"d":"45,-120v-32,48,1,123,15,167v51,37,96,75,182,75v106,0,189,-70,241,-152v-96,27,-199,47,-317,31v-53,-22,-115,-52,-121,-121xm286,-271v-15,32,-59,54,-44,105v32,17,91,31,136,16v-8,-39,-17,-80,-48,-97v-14,-8,-29,-17,-44,-24xm468,-181v-2,-26,14,-41,15,-61v-12,-54,-71,-59,-120,-75r-46,31v49,19,74,70,76,136v35,0,46,-20,75,-31xm378,-347v45,37,143,38,119,134v-18,73,-98,88,-180,93v-32,-14,-81,-4,-90,-46v-15,-71,48,-91,75,-136xm135,-529v-15,38,-72,107,-15,136v24,87,99,-1,136,-15v-46,-32,-133,-38,-121,-121xm317,-529v32,0,58,30,90,15v-9,-25,-71,-48,-90,-15xm347,-575v35,1,63,19,75,46v15,-16,47,-14,46,-46r-30,-15v-36,-2,-72,-10,-91,15xm393,-499v-39,0,-77,-4,-91,-30v6,-64,93,-107,160,-72v18,9,24,28,21,57v-12,12,-37,20,-47,34v-5,12,12,18,17,26v-30,17,-30,-31,-60,-15xm635,-286v-33,-32,-31,-108,-106,-92v-13,-15,-48,-30,-61,-46v65,-55,119,-104,121,-211v-31,-28,-61,-72,-121,-61r0,15v-30,0,-61,0,-75,16v1,-8,-5,-11,-7,-15v-109,1,-177,49,-220,120v1,26,-17,57,0,76v38,41,88,61,151,76r-15,15v-49,1,-73,29,-106,46v-66,57,-149,129,-121,256v58,121,335,94,424,16v72,-7,78,-84,121,-121xm468,-711v74,0,108,36,136,76v12,97,-50,151,-90,211v10,29,50,17,75,31r61,91r-15,121v-47,35,-51,109,-121,121v-47,111,-139,190,-287,197v-25,-14,-66,2,-92,-15v-49,-33,-113,-56,-121,-136v-9,-90,32,-151,46,-228v28,-27,50,-60,75,-90v-18,-35,-57,-56,-60,-106v31,-75,74,-153,136,-197v37,-2,49,-31,75,-46v44,-25,112,-30,182,-30xm45,-120v-32,48,1,123,15,167v51,37,96,75,182,75v106,0,189,-70,241,-152v-96,27,-199,47,-317,31v-53,-22,-115,-52,-121,-121xm286,-271v-15,32,-59,54,-44,105v32,17,91,31,136,16v-8,-39,-17,-80,-48,-97v-14,-8,-29,-17,-44,-24xm468,-181v-2,-26,14,-41,15,-61v-12,-54,-71,-59,-120,-75r-46,31v49,19,74,70,76,136v35,0,46,-20,75,-31xm378,-347v45,37,143,38,119,134v-18,73,-98,88,-180,93v-32,-14,-81,-4,-90,-46v-15,-71,48,-91,75,-136xm135,-529v-15,38,-72,107,-15,136v24,87,99,-1,136,-15v-46,-32,-133,-38,-121,-121xm317,-529v32,0,58,30,90,15v-9,-25,-71,-48,-90,-15xm347,-575v35,1,63,19,75,46v15,-16,47,-14,46,-46r-30,-15v-36,-2,-72,-10,-91,15xm393,-499v-39,0,-77,-4,-91,-30v6,-64,93,-107,160,-72v18,9,24,28,21,57v-12,12,-37,20,-47,34v-5,12,12,18,17,26v-30,17,-30,-31,-60,-15xm635,-286v-33,-32,-31,-108,-106,-92v-13,-15,-48,-30,-61,-46v65,-55,119,-104,121,-211v-31,-28,-61,-72,-121,-61r0,15v-30,0,-61,0,-75,16v1,-8,-5,-11,-7,-15v-109,1,-177,49,-220,120v1,26,-17,57,0,76v38,41,88,61,151,76r-15,15v-49,1,-73,29,-106,46v-66,57,-149,129,-121,256v58,121,335,94,424,16v72,-7,78,-84,121,-121xm468,-711v74,0,108,36,136,76v12,97,-50,151,-90,211v10,29,50,17,75,31r61,91r-15,121v-47,35,-51,109,-121,121v-47,111,-139,190,-287,197v-25,-14,-66,2,-92,-15v-49,-33,-113,-56,-121,-136v-9,-90,32,-151,46,-228v28,-27,50,-60,75,-90v-18,-35,-57,-56,-60,-106v31,-75,74,-153,136,-197v37,-2,49,-31,75,-46v44,-25,112,-30,182,-30","w":669},"9":{"d":"379,-5v-67,30,-171,7,-205,79r16,16r126,0xm332,-354v-20,37,-67,50,-95,80v-13,112,-49,221,-63,332v69,-51,86,-148,110,-237xm47,-448v-18,42,-14,124,17,147v37,27,108,65,155,21v20,-19,41,-42,65,-57v-74,22,-182,13,-209,-44v-10,-21,-20,-43,-28,-67xm221,-551v-46,-11,-51,29,-47,72v35,14,73,2,110,0v-10,-24,-8,-51,-34,-61v-10,-4,-19,-9,-29,-11xm348,-591v-22,-54,-96,-21,-126,0v32,20,75,29,84,71v2,8,6,16,10,24v15,-1,33,1,32,-15v-1,-29,-15,-55,0,-80xm284,-638v27,-6,43,16,64,17v16,42,15,88,16,142v-53,15,-117,32,-190,31v-13,-13,-33,-43,-16,-63v32,-59,57,-112,126,-127xm63,-496v-10,137,152,185,269,127r-16,-15v-1,-18,16,-16,32,-17v15,51,-16,90,-16,142v-32,79,-47,176,-80,254r159,-32v16,-95,29,-193,40,-292v11,-99,24,-197,40,-292v-24,-43,-76,-50,-127,-64r0,15v-36,-27,-111,-46,-159,-15v-30,20,-71,37,-78,79v-32,32,-47,62,-64,110xm237,-717v49,-2,79,20,127,16v58,17,119,26,142,80v-8,47,-16,96,-22,147r-36,306v-6,51,-13,100,-21,147v-43,27,-61,75,-95,111v18,15,-9,22,-16,32v-58,-17,-136,-1,-194,6v-4,0,-8,-2,-12,-6v60,-101,63,-252,112,-364v-120,19,-220,-46,-196,-174v6,-30,15,-61,6,-95v52,-84,105,-170,205,-206xm379,-5v-67,30,-171,7,-205,79r16,16r126,0xm332,-354v-20,37,-67,50,-95,80v-13,112,-49,221,-63,332v69,-51,86,-148,110,-237xm47,-448v-18,42,-14,124,17,147v37,27,108,65,155,21v20,-19,41,-42,65,-57v-74,22,-182,13,-209,-44v-10,-21,-20,-43,-28,-67xm221,-551v-46,-11,-51,29,-47,72v35,14,73,2,110,0v-10,-24,-8,-51,-34,-61v-10,-4,-19,-9,-29,-11xm348,-591v-22,-54,-96,-21,-126,0v32,20,75,29,84,71v2,8,6,16,10,24v15,-1,33,1,32,-15v-1,-29,-15,-55,0,-80xm284,-638v27,-6,43,16,64,17v16,42,15,88,16,142v-53,15,-117,32,-190,31v-13,-13,-33,-43,-16,-63v32,-59,57,-112,126,-127xm63,-496v-10,137,152,185,269,127r-16,-15v-1,-18,16,-16,32,-17v15,51,-16,90,-16,142v-32,79,-47,176,-80,254r159,-32v16,-95,29,-193,40,-292v11,-99,24,-197,40,-292v-24,-43,-76,-50,-127,-64r0,15v-36,-27,-111,-46,-159,-15v-30,20,-71,37,-78,79v-32,32,-47,62,-64,110xm237,-717v49,-2,79,20,127,16v58,17,119,26,142,80v-8,47,-16,96,-22,147r-36,306v-6,51,-13,100,-21,147v-43,27,-61,75,-95,111v18,15,-9,22,-16,32v-58,-17,-136,-1,-194,6v-4,0,-8,-2,-12,-6v60,-101,63,-252,112,-364v-120,19,-220,-46,-196,-174v6,-30,15,-61,6,-95v52,-84,105,-170,205,-206"},"%":{"d":"317,47v-45,15,-98,0,-148,0r-65,49v58,2,120,36,163,-4v15,-14,33,-28,50,-45xm692,-69r-15,0r15,17r0,-17xm740,-100v-2,-13,-17,-17,-32,-17v-15,-1,-32,18,-16,33v0,15,17,33,33,32v2,-19,17,-24,15,-48xm578,-132v-15,29,-28,45,-49,63v-1,69,6,124,49,149v55,17,105,14,147,-18v-50,0,-83,-12,-114,-32v-44,-28,-53,-98,-33,-162xm660,-100v21,-25,64,-54,85,-14v3,6,8,10,13,14r0,31v-31,14,-43,32,-81,33v-16,-11,-17,-42,-17,-64xm758,30v61,-19,116,-105,62,-170v-18,-33,-40,-83,-95,-58v-19,-25,-61,-20,-81,0v-41,42,-67,99,-50,180v29,45,76,64,146,65v1,-10,6,-22,15,-23v2,0,3,2,3,6xm708,-231v20,16,62,1,83,16v29,48,99,104,66,179v-28,64,-110,78,-149,132v-32,17,-101,31,-130,0v-55,-25,-69,-84,-66,-165v39,-51,73,-122,132,-153v19,-10,40,-14,64,-9xm71,-460v34,42,158,21,164,-33r-81,0v-31,-39,-77,-67,-83,-130r-16,66v-20,36,5,68,16,97xm220,-672v-27,15,-17,63,15,65v27,2,16,-27,33,-33v-14,-10,-29,-31,-48,-32xm121,62v21,-3,27,-29,48,-32v50,-144,119,-271,180,-408v45,-101,122,-186,163,-294v-91,90,-131,223,-195,343xm187,-655v12,-13,20,-20,33,-32v40,-4,67,23,50,65v-8,53,-79,22,-81,-10v0,-8,-2,-16,-2,-23xm677,-687v-50,0,-82,-19,-131,-19r-96,182r-90,180r-87,184r-86,190v53,-1,121,0,162,-16v16,1,34,-18,17,-32v24,-58,50,-115,76,-170r158,-331xm235,128v-46,-15,-118,1,-164,-15v8,-66,71,-86,83,-149r261,-553r63,-67v18,-21,34,-43,51,-65v66,0,115,16,163,34v13,-3,30,7,9,9v-9,3,-17,9,-9,23r-226,462v-24,51,-46,104,-66,157v0,39,-22,51,-34,83r0,-17xm283,-721v-10,-61,-95,-16,-117,7v-34,36,-96,94,-50,156v6,8,13,13,21,17v15,38,89,42,121,19v10,-7,18,-20,25,-35v15,-8,17,-4,13,9v-3,6,-7,13,-13,22v72,-12,122,-134,51,-195v-18,-15,-34,15,-51,0xm382,-640v-1,59,-41,104,-81,131v-47,1,-47,48,-79,64v-40,34,-136,31,-166,-10v-12,-16,-24,-36,-33,-54v24,-125,95,-217,207,-253v31,-10,59,3,71,24v25,-21,44,12,57,22v21,16,38,41,24,76xm317,47v-45,15,-98,0,-148,0r-65,49v58,2,120,36,163,-4v15,-14,33,-28,50,-45xm692,-69r-15,0r15,17r0,-17xm740,-100v-2,-13,-17,-17,-32,-17v-15,-1,-32,18,-16,33v0,15,17,33,33,32v2,-19,17,-24,15,-48xm578,-132v-15,29,-28,45,-49,63v-1,69,6,124,49,149v55,17,105,14,147,-18v-50,0,-83,-12,-114,-32v-44,-28,-53,-98,-33,-162xm660,-100v21,-25,64,-54,85,-14v3,6,8,10,13,14r0,31v-31,14,-43,32,-81,33v-16,-11,-17,-42,-17,-64xm758,30v61,-19,116,-105,62,-170v-18,-33,-40,-83,-95,-58v-19,-25,-61,-20,-81,0v-41,42,-67,99,-50,180v29,45,76,64,146,65v1,-10,6,-22,15,-23v2,0,3,2,3,6xm708,-231v20,16,62,1,83,16v29,48,99,104,66,179v-28,64,-110,78,-149,132v-32,17,-101,31,-130,0v-55,-25,-69,-84,-66,-165v39,-51,73,-122,132,-153v19,-10,40,-14,64,-9xm71,-460v34,42,158,21,164,-33r-81,0v-31,-39,-77,-67,-83,-130r-16,66v-20,36,5,68,16,97xm220,-672v-27,15,-17,63,15,65v27,2,16,-27,33,-33v-14,-10,-29,-31,-48,-32xm121,62v21,-3,27,-29,48,-32v50,-144,119,-271,180,-408v45,-101,122,-186,163,-294v-91,90,-131,223,-195,343xm187,-655v12,-13,20,-20,33,-32v40,-4,67,23,50,65v-8,53,-79,22,-81,-10v0,-8,-2,-16,-2,-23xm677,-687v-50,0,-82,-19,-131,-19r-96,182r-90,180r-87,184r-86,190v53,-1,121,0,162,-16v16,1,34,-18,17,-32v24,-58,50,-115,76,-170r158,-331xm235,128v-46,-15,-118,1,-164,-15v8,-66,71,-86,83,-149r261,-553r63,-67v18,-21,34,-43,51,-65v66,0,115,16,163,34v13,-3,30,7,9,9v-9,3,-17,9,-9,23r-226,462v-24,51,-46,104,-66,157v0,39,-22,51,-34,83r0,-17xm283,-721v-10,-61,-95,-16,-117,7v-34,36,-96,94,-50,156v6,8,13,13,21,17v15,38,89,42,121,19v10,-7,18,-20,25,-35v15,-8,17,-4,13,9v-3,6,-7,13,-13,22v72,-12,122,-134,51,-195v-18,-15,-34,15,-51,0xm382,-640v-1,59,-41,104,-81,131v-47,1,-47,48,-79,64v-40,34,-136,31,-166,-10v-12,-16,-24,-36,-33,-54v24,-125,95,-217,207,-253v31,-10,59,3,71,24v25,-21,44,12,57,22v21,16,38,41,24,76","w":888},"&":{"d":"256,304v6,1,13,5,13,13v36,-12,78,-8,91,-46v-36,8,-89,-7,-104,33xm292,109v-54,23,-25,111,-36,172v63,-22,28,-107,36,-172xm385,84v-12,11,-35,13,-58,13v-11,41,-25,100,-13,150v25,-1,60,13,82,0v11,-59,-11,-105,-11,-163xm314,73v36,11,74,-21,104,0v-12,57,1,127,0,186v-34,12,-56,45,-80,69v-36,1,-83,10,-104,-11v12,-58,-1,-114,0,-175v33,-19,49,-48,80,-69xm49,-238v-29,77,-10,196,42,230v93,92,362,74,398,-46v-56,34,-135,87,-219,54v-50,-20,-112,-30,-147,-65v-41,-41,-65,-100,-74,-173xm396,-413v-79,13,-158,40,-158,127v0,10,7,18,18,24v38,-36,51,-101,118,-112v16,-7,28,-14,22,-39xm118,-413v17,-28,48,-35,70,-58v-42,-36,-82,-77,-89,-148v-1,-13,2,-25,8,-36v-27,63,-63,200,11,242xm269,-644v15,0,12,-2,23,-11v44,0,81,80,115,23v-24,-25,-60,-44,-93,-30v-19,2,-39,2,-45,18xm327,-691v45,-9,69,27,103,36v17,-16,25,-42,35,-69v-18,0,-6,-8,0,-12r-12,0v0,-20,3,-31,-13,-40v-9,-6,-16,-12,-22,-18v-52,-10,-117,-36,-173,-12v-74,31,-127,109,-127,209v14,73,78,101,127,139r-11,12v-40,-11,-57,22,-94,22v-63,66,-91,211,-33,306v52,85,222,139,329,67v46,-31,87,-73,121,-118v-32,-23,-56,-43,-68,-82v-23,35,-71,46,-104,70v-57,14,-110,-7,-129,-46v-44,-22,-48,-109,-9,-143v32,-27,74,-46,113,-66v-83,-23,-102,-114,-138,-184v21,-30,55,-72,105,-71xm14,-158v25,-84,47,-166,93,-232v-27,-37,-56,-73,-47,-139v17,-128,76,-236,174,-288v85,-45,200,1,242,58v13,1,13,-2,13,10v-16,41,-25,88,-46,129v-12,11,-24,-12,-36,0v-18,7,-24,47,-47,23v-20,-8,-42,-35,-68,-35v-10,-1,-37,13,-36,23v2,53,45,74,58,116v31,30,62,56,116,57v10,10,-4,20,-12,23r-11,47v-68,17,-111,69,-138,128v54,75,194,23,220,-47v35,35,45,93,92,116v-18,31,-42,61,-61,93v-15,25,-43,42,-44,80v-78,81,-318,96,-402,11v-39,-39,-51,-105,-60,-173xm327,-898v-14,22,-57,1,-71,23v28,-1,62,-2,71,-23xm269,-1059v-50,29,-28,107,-35,172r35,-34r0,-138xm372,-1084v-31,-2,-53,13,-80,13r-12,138r23,0v1,13,-12,11,-11,24r57,-12v13,-50,36,-99,23,-163xm211,-1013v34,-19,31,-86,91,-68v22,6,39,16,68,16v-10,50,26,84,2,132v11,3,2,18,-4,21v-33,17,-47,75,-99,49v-23,0,-36,34,-58,12v11,-60,11,-102,0,-162","w":558},"'":{"d":"130,-429v27,-1,62,-9,67,-33v-22,9,-59,9,-67,33xm80,-721r-16,50v23,65,41,148,41,234v7,-16,15,-23,25,-34v-10,-93,-18,-173,-50,-250xm205,-771v-22,8,-55,8,-83,8v0,12,-11,9,-17,17v8,-1,18,19,8,25v-8,0,-8,-8,-8,-16v-3,71,40,105,42,175v10,27,-1,61,16,83v15,-17,70,3,58,-41v-21,-75,0,-172,-16,-251xm80,-779v63,0,110,-10,159,-25v13,1,8,21,0,25v1,97,-11,187,8,275v5,8,26,2,25,16v-70,1,-64,109,-150,75v-65,19,-18,-62,-42,-99r-25,-134v-9,9,-26,10,-25,-8v14,-40,43,-80,50,-125","w":293},"(":{"d":"560,186v-16,46,-64,77,-84,119v-7,13,-8,26,-3,39v49,-45,65,-94,87,-158xm124,-563v-83,152,-72,417,-35,611v57,122,126,252,279,278v29,-16,107,17,87,-52v-221,-71,-308,-291,-366,-523v19,-99,0,-228,35,-314xm403,-580v-16,30,-17,63,-17,104v0,-37,34,-66,17,-104xm316,-825v-127,141,-221,373,-166,637v33,158,112,297,218,392v50,6,78,40,123,53v49,-47,55,-129,87,-193v-113,-5,-178,-76,-210,-157v-67,-171,-40,-437,52,-557v-37,-56,-56,-129,-104,-175xm298,-894v18,0,0,34,18,34v53,53,87,122,122,192v11,0,21,-6,32,-6v10,13,9,31,-8,33v-11,5,-28,8,-24,25r17,70v-113,96,-125,392,-17,505v42,43,95,86,174,89v17,40,-15,80,-16,121v-3,96,-84,130,-105,209v-19,12,-39,11,-36,-16v-86,16,-148,-26,-209,-53v-160,-127,-238,-330,-226,-611v7,-167,91,-281,157,-400v56,-38,72,-112,121,-158r0,-34","w":645},")":{"d":"213,144r-17,33v33,43,18,123,67,151r51,-33v-34,-50,-51,-117,-101,-151xm79,-596v155,102,250,279,235,538v97,-127,29,-380,-28,-498v-29,-59,-67,-108,-124,-140r-16,32v-45,-12,-50,39,-67,68xm95,-831v-32,46,-66,132,-34,201v54,-24,47,-88,34,-148v-4,-18,-4,-36,0,-53xm247,126v16,35,50,50,50,101v12,15,31,47,51,18v132,-188,199,-447,153,-749v-10,-69,-42,-113,-103,-142v-83,-78,-153,-176,-269,-219r0,135v49,2,74,29,101,54v66,62,96,162,134,248v92,207,-31,415,-117,554xm29,-613v2,-33,13,-73,-18,-83r84,-186v117,3,168,81,235,135v107,87,231,176,220,370v-3,55,-9,109,-14,161v-20,189,-61,358,-157,474v-34,41,-66,79,-116,104v-49,-31,-64,-79,-83,-135v-18,-1,-17,2,-18,-16v20,-55,36,-104,85,-134v35,-51,29,-118,33,-202v12,-249,-94,-399,-251,-488","w":581},"*":{"d":"222,-266v17,8,55,4,46,-24v-18,5,-45,-3,-46,24xm158,-310v-15,-8,-23,-30,-40,-36r-11,20v10,15,19,28,31,40xm213,-401r-20,45v14,17,11,51,25,70v24,-34,-5,-76,-5,-115xm364,-386r4,-20r-20,30xm324,-372v-1,-3,5,-9,0,-9r-46,-40v0,17,4,27,10,40v11,4,19,17,36,9xm42,-396v28,-13,70,-3,96,-16v3,-8,16,-23,15,-34r-101,30xm32,-487v-19,21,-1,54,0,81v26,-16,5,-58,0,-81xm313,-487v20,6,35,21,51,31v13,-11,34,-18,34,-40v-31,5,-60,-1,-85,9xm138,-512v-17,-10,-32,-25,-46,-40v-13,22,20,24,21,45xm153,-682v-18,14,-12,47,-15,75v8,8,18,31,29,35xm388,-572v-29,12,-64,23,-98,29v-4,0,-8,-1,-12,-4v4,-32,20,-70,30,-100r-46,0r-24,80v-7,6,-10,-2,-16,-5v0,-47,-9,-96,-15,-140v-15,0,-30,5,-40,10v-3,51,13,97,13,140v3,8,13,13,2,21v-30,-20,-42,-51,-69,-75v-7,12,-26,26,-21,44v28,28,46,56,90,64v0,25,-46,4,-64,16v-20,0,-47,-5,-66,0v-6,22,8,37,10,56v31,-1,59,-19,90,-22v8,-3,14,-14,26,-9v10,4,1,15,-5,15v-4,11,-15,26,-11,40v-20,8,-23,36,-35,51v6,16,27,20,35,35v14,-8,10,-33,25,-40r26,-66r9,0v12,40,5,87,20,126r36,0v-1,-26,4,-56,-9,-70v14,-22,-23,-45,-7,-70v35,7,46,41,76,54v11,-14,20,-30,35,-40v-24,-21,-62,-34,-91,-55v1,-17,42,-13,62,-19v18,-5,37,-4,54,-1v0,-26,-5,-45,-10,-65xm127,-616v13,-26,-4,-71,26,-82r0,-9v20,-4,39,-21,65,-20v3,44,11,82,20,120v5,-18,5,-44,20,-55r66,4v5,18,-16,27,-16,42v0,22,-11,41,-15,60v44,4,66,-25,105,-31v6,29,23,71,8,99v-2,7,-2,14,-2,21v-10,6,-20,11,-31,15v3,10,20,19,20,31v-24,14,-10,60,-49,60v-19,-11,-26,43,-36,5v-6,-4,-9,-10,-20,-10v-8,26,6,45,10,65v-7,14,-26,6,-16,31v-17,19,-45,24,-80,20v13,-33,-11,-61,-15,-86v-18,6,-1,36,-25,40v-10,10,-8,31,-24,35r-51,-69v23,-12,26,-41,40,-62v-38,-4,-82,-1,-105,20v-15,-9,3,-29,0,-44r-10,-56v18,-22,41,-40,86,-35v-5,-8,-12,-15,-20,-20v3,-21,10,-41,0,-60v12,-13,19,-34,36,-42v6,2,6,12,13,13","w":428},"+":{"d":"328,-53v-61,-3,-120,-6,-139,42r98,0xm399,-206r-15,27v20,-2,49,6,56,-9v3,-6,8,-11,15,-18r-56,0xm175,-166v13,37,2,88,0,127v85,-4,61,-104,70,-181v-14,27,-43,40,-70,54xm231,-220v-50,26,-142,0,-168,54v77,16,129,-18,168,-54xm91,-220r0,-112v-37,34,-43,94,-41,166xm245,-374v13,-38,13,-79,13,-126r14,0v-61,2,-57,68,-54,126r27,0xm469,-360v-40,-20,-93,20,-126,0r0,-168v-10,13,-36,15,-56,15v-5,48,-19,93,-18,144v-1,15,-5,23,-24,22v-26,-27,-87,1,-126,-13v-14,40,0,95,0,140r84,-15v29,-27,73,-2,61,44v-8,31,-6,69,0,99v-1,4,-3,8,-6,11v28,14,67,1,99,0r14,-70r-14,-15r14,0v-1,-20,13,-40,0,-54v16,-30,69,2,98,-15v-14,-37,-1,-83,0,-125xm258,-528v9,11,21,8,29,0v27,1,57,-15,84,-14v-15,51,-13,120,-14,182v44,-1,84,-43,125,-14r0,168r-13,0v-26,22,-39,54,-85,55v-11,36,10,104,-41,112v-29,18,-48,70,-98,41v-23,-13,-57,-1,-84,0v1,-45,14,-98,0,-139v-33,-14,-91,-1,-126,-14r0,14r-14,-14v0,-94,33,-159,70,-223v30,-14,67,14,98,0v14,-24,14,-65,14,-99"},",":{"d":"221,34v-49,36,-64,102,-62,187v53,-34,49,-115,62,-187xm221,3v-28,15,-80,0,-93,31v-11,0,-15,-6,-16,-15v-31,30,-46,61,-46,92v74,-12,131,-45,155,-108xm128,-136v-69,34,-80,115,-94,202r47,-63v67,-6,37,-85,47,-139xm143,-13v44,17,92,-32,125,0v-17,46,-17,108,-32,156v14,-63,46,-110,78,-156v29,-42,-16,-112,16,-155v-68,-16,-127,3,-187,15v15,42,0,93,0,140xm143,251v-28,-10,0,-30,0,-46r0,-77v-43,-16,-70,12,-109,15r-15,-15v1,-79,-1,-138,15,-202v48,-31,61,-94,109,-125v70,16,145,-17,218,0v-30,52,-16,131,0,186v-67,47,-77,137,-125,202r-15,0v-32,30,-62,79,-93,109v-17,-2,2,-19,0,-30v9,-1,16,-7,15,-17","w":394},"-":{"d":"548,-305v-16,19,-62,1,-78,20v-117,-20,-237,21,-352,0v-14,35,-57,34,-60,78v137,1,275,-1,392,20v33,-36,77,-74,98,-118xm78,-305v54,-10,22,-93,40,-136v-54,48,-60,132,-78,215r58,-59xm568,-500v-46,0,-85,22,-137,19v-92,-40,-208,40,-294,-19r0,176v18,1,37,3,39,19v98,-36,250,-4,352,-38v54,-18,42,-93,40,-157xm391,-520v63,56,167,-52,215,20r-18,137v7,10,18,14,26,19v-1,0,-3,1,-8,1v-44,63,-79,120,-136,175v-136,-19,-294,-19,-430,0v-13,18,-24,1,-40,0r40,-253v42,-2,55,-38,78,-60v-10,-9,-15,-19,-15,-27v0,-8,5,-12,15,-12v77,20,196,20,273,0","w":645},".":{"d":"242,-11v-29,16,-79,35,-119,18v-33,31,-46,64,-67,103v98,11,134,-72,186,-121xm38,58v61,-24,74,-91,58,-166v-4,-20,-7,-39,-7,-56v-57,43,-37,140,-51,222xm260,-214v-51,-1,-103,17,-137,34r0,152v35,54,97,-7,137,-16v17,-51,0,-112,0,-170xm89,-214v76,0,140,-20,205,-35v16,26,-15,48,0,69v0,58,-17,118,0,169v-34,37,-95,58,-102,121v-42,31,-128,3,-171,33v-1,24,-3,11,-17,0v17,-68,33,-157,17,-238","w":317},"\/":{"d":"128,39v-21,24,-61,34,-82,58v45,-19,107,-12,164,-19v26,-9,40,-30,46,-63v-52,-11,-78,23,-128,24xm442,-707r-81,81v-47,95,-102,168,-152,257v-79,141,-113,295,-174,443r46,-23v36,-108,92,-193,139,-292xm139,15v50,0,78,-23,128,-23r0,-11v35,-32,44,-79,70,-117v75,-220,198,-405,292,-607v-46,0,-99,-10,-140,0r-210,409v-48,121,-114,229,-163,349v7,-6,17,-6,23,0xm303,15v-26,15,-56,32,-59,70v-19,10,-40,45,-58,12v-62,-11,-114,12,-175,12v0,6,-2,9,-6,9v-21,-23,22,-59,30,-79v47,-107,63,-237,128,-327v49,-120,118,-224,174,-338r117,-117r-12,0v-3,-5,-3,-8,-2,-9v7,-3,19,6,25,-2v59,-12,129,2,187,-11v-40,100,-88,196,-134,291r-70,144v-38,75,-64,158,-104,229v-19,34,-45,60,-41,116","w":629},"3":{"d":"348,10v-87,1,-191,15,-255,-16v-24,21,-28,54,-47,79r95,16v82,-16,161,-25,207,-79xm109,-149v-7,26,-44,39,-63,63r0,128v15,-66,94,-105,63,-191xm379,-276v-26,-23,-37,-58,-79,-64v-47,-6,-76,-55,-122,-61v-25,-4,-33,16,-37,45v30,-2,42,16,55,29v29,29,43,71,56,114v60,-1,111,-18,127,-63xm93,-499v50,-2,119,-28,143,16v16,-32,48,-47,64,-79v-49,-32,-116,2,-159,16v0,9,-6,15,-16,15r-16,-15v1,15,-18,31,-16,47xm109,-578r16,-143v-59,57,-77,132,-79,238xm507,-737v-111,-16,-238,0,-350,-16v-16,60,-15,104,-16,175v32,0,48,-17,80,-16v35,1,81,16,111,0v17,1,15,-1,16,16v-36,68,-115,97,-159,159r16,0v58,55,166,56,191,143v4,16,-4,26,-17,32v-24,58,-108,48,-158,79v-9,0,-17,-7,-16,-16r-64,-16v-1,70,0,132,-32,175v68,29,166,18,255,16r15,-16v79,-6,123,-62,159,-111v34,-106,42,-274,-100,-269v-10,0,-19,-1,-27,-1v-11,-16,-48,15,-47,-16v33,-118,108,-201,143,-318xm62,-467v-21,7,-13,40,-48,32v17,-64,15,-127,32,-191r79,-111r-16,-16r16,-16v64,0,128,1,191,2v66,2,136,6,201,16v7,3,14,7,21,14r-78,145v-25,49,-49,100,-65,157v147,-8,212,113,173,256v-5,21,-10,42,-14,62v-41,57,-103,108,-175,127v-43,26,-67,68,-127,79v-66,12,-125,15,-206,16v-22,-14,-24,27,-48,32v6,-79,52,-134,32,-223v48,-30,79,-80,111,-127r64,0v32,-15,-1,-51,0,-79v-13,-29,-57,-29,-80,-48v21,-39,27,-101,73,-114v7,-5,11,-13,23,-13v-40,-30,-114,-14,-159,0xm348,10v-87,1,-191,15,-255,-16v-24,21,-28,54,-47,79r95,16v82,-16,161,-25,207,-79xm109,-149v-7,26,-44,39,-63,63r0,128v15,-66,94,-105,63,-191xm379,-276v-26,-23,-37,-58,-79,-64v-47,-6,-76,-55,-122,-61v-25,-4,-33,16,-37,45v30,-2,42,16,55,29v29,29,43,71,56,114v60,-1,111,-18,127,-63xm93,-499v50,-2,119,-28,143,16v16,-32,48,-47,64,-79v-49,-32,-116,2,-159,16v0,9,-6,15,-16,15r-16,-15v1,15,-18,31,-16,47xm109,-578r16,-143v-59,57,-77,132,-79,238xm507,-737v-111,-16,-238,0,-350,-16v-16,60,-15,104,-16,175v32,0,48,-17,80,-16v35,1,81,16,111,0v17,1,15,-1,16,16v-36,68,-115,97,-159,159r16,0v58,55,166,56,191,143v4,16,-4,26,-17,32v-24,58,-108,48,-158,79v-9,0,-17,-7,-16,-16r-64,-16v-1,70,0,132,-32,175v68,29,166,18,255,16r15,-16v79,-6,123,-62,159,-111v34,-106,42,-274,-100,-269v-10,0,-19,-1,-27,-1v-11,-16,-48,15,-47,-16v33,-118,108,-201,143,-318xm62,-467v-21,7,-13,40,-48,32v17,-64,15,-127,32,-191r79,-111r-16,-16r16,-16v64,0,128,1,191,2v66,2,136,6,201,16v7,3,14,7,21,14r-78,145v-25,49,-49,100,-65,157v147,-8,212,113,173,256v-5,21,-10,42,-14,62v-41,57,-103,108,-175,127v-43,26,-67,68,-127,79v-66,12,-125,15,-206,16v-22,-14,-24,27,-48,32v6,-79,52,-134,32,-223v48,-30,79,-80,111,-127r64,0v32,-15,-1,-51,0,-79v-13,-29,-57,-29,-80,-48v21,-39,27,-101,73,-114v7,-5,11,-13,23,-13v-40,-30,-114,-14,-159,0","w":589},"!":{"d":"225,9v-65,3,-117,28,-133,80v48,-25,123,-15,133,-80xm131,-123v-54,39,-55,119,-65,199r65,-79v0,-40,14,-83,0,-120xm158,-30v21,-5,22,16,14,27v44,0,67,-17,92,-41v16,-43,12,-98,-13,-132v-42,1,-50,40,-93,40r0,106xm39,-30v26,-54,66,-93,106,-132v47,15,76,-38,119,-38v38,0,20,59,24,94v7,62,-4,109,-51,129v0,30,-31,55,-53,66v-52,0,-106,13,-132,40v-26,-46,-2,-105,0,-159r-13,0xm211,-282v-27,12,-63,5,-80,27v-45,2,-53,43,-79,65v16,-13,56,13,67,-13v43,-15,56,-57,92,-79xm119,-693v-13,42,-57,57,-53,119v8,125,-27,232,-27,358r66,-66v14,-128,1,-279,14,-411xm131,-282v41,-13,79,-40,120,-53r-14,-425v-44,0,-67,17,-92,41v1,104,-41,205,-14,305r14,0v16,30,-13,68,-8,112v-1,7,-3,13,-6,20xm13,-150v-13,-9,-1,-26,0,-40v0,-119,38,-222,26,-344r13,-79v26,-42,53,-79,67,-133v48,-6,100,-63,145,-14v-13,147,-13,293,0,438v-45,32,-66,94,-119,119v-5,43,-66,26,-105,29v-14,0,-12,23,-27,24","w":307},"\"":{"d":"142,-500v-27,0,-57,15,-66,36v32,13,69,-6,66,-36xm292,-524v-22,-13,-58,-7,-54,24v15,-9,43,9,47,-12v1,-5,4,-9,7,-12xm46,-704v-29,75,17,145,18,222v14,-12,48,-26,30,-54v-29,-44,-30,-114,-48,-168xm196,-728r-18,30v25,58,28,118,54,174r6,-18v-13,-61,-17,-135,-42,-186xm160,-524v1,-60,-12,-120,-18,-174v5,-49,-46,-25,-78,-36v7,7,7,5,0,12v-4,0,-6,-2,-6,-6v5,53,24,100,30,150v9,14,23,36,24,54v12,10,31,6,48,0xm288,-547v18,-2,11,-38,10,-57v-3,-53,-19,-102,-24,-154v-21,0,-44,-1,-60,6v6,36,13,70,20,101v7,31,13,64,16,97v15,-4,25,8,38,7xm40,-746v26,-12,67,6,90,-6v25,1,18,33,30,48v-7,7,0,4,0,12v5,-25,33,-35,30,-66v30,-5,78,-25,108,-6v-19,49,12,94,12,144v0,25,1,52,18,66v-19,25,-23,65,-60,72v-6,-12,-24,-12,-30,0v-12,-2,-5,17,-18,12v-17,-20,6,-65,-18,-84v-13,-49,-17,-89,-36,-132v-6,56,12,96,12,150v12,-1,13,12,6,18v1,11,-10,12,-18,12v-12,17,-10,35,-24,48v-29,6,-57,12,-90,12v-6,-81,-25,-150,-36,-228v10,-21,24,-44,24,-72","w":350},"#":{"d":"218,-8v18,0,46,-17,68,-15v1,-33,17,-42,28,-68r-69,28v-10,11,-26,37,-27,55xm409,-63v24,-1,47,-12,68,0v14,-14,28,-26,28,-54v-39,12,-84,15,-96,54xm204,-172v-39,36,0,108,-13,164v35,-40,16,-106,13,-164xm396,-76v12,-27,13,-69,13,-109v-49,16,-16,69,-13,109xm177,-159r14,-26v-48,14,-112,15,-122,68xm396,-200v-21,16,-83,-14,-69,41v24,0,37,4,48,-15v6,-10,14,-19,21,-26xm55,-240v-26,36,-29,75,-15,123v49,-17,19,-81,15,-123xm517,-240r15,40v31,-13,84,-3,82,-54v-33,0,-58,16,-97,14xm164,-309r0,-55v-8,22,-30,33,-15,55r15,0xm40,-322v29,-25,95,1,109,-42v-50,-3,-100,-3,-109,42xm354,-376v-28,0,-39,13,-54,27r0,27r54,-14r0,-40xm586,-391v-32,1,-57,2,-69,27r-12,0v33,-1,49,-26,81,-27xm27,-336v11,-13,13,-9,13,-28v27,-8,3,-38,0,-54v-32,15,-19,51,-13,82xm396,-418v-25,10,-26,38,-27,69v18,0,30,-3,40,-15xm327,-391v31,13,39,-25,54,-40v-27,4,-50,13,-81,13r0,42v13,0,14,-15,27,-15xm601,-445v-37,15,-64,11,-96,27r0,27v24,-27,96,2,96,-54xm286,-295v-12,-18,-1,-53,-14,-69v18,-14,13,-50,14,-81r14,14v30,-16,74,-14,109,-29v-8,51,65,148,-40,138v-28,15,-55,11,-83,27xm354,-677v-13,36,-13,91,-13,137r40,-14v-1,-51,-3,-88,-27,-123xm191,-677v-13,13,-43,28,-27,55v13,38,-15,91,13,122r14,0v-15,-54,-15,-122,0,-177xm300,-145v31,-12,-17,-77,54,-68v23,2,38,-14,55,-15v-1,42,28,69,14,111v38,1,62,-13,85,-31v6,-5,9,-14,9,-24v-26,-13,5,-54,-24,-75v-5,-7,-9,-14,-1,-21v44,14,99,-1,135,-13v1,-41,-13,-67,-26,-95v-39,11,-64,25,-96,40v-34,-12,1,-61,-23,-87v-4,-12,-2,-17,10,-22v48,13,83,-17,122,-28r-13,-96v-39,16,-97,14,-124,42r-13,0v0,-48,-14,-95,0,-137v2,-33,-8,-55,-41,-54v-13,14,-42,13,-42,41v15,40,15,98,15,150v-48,7,-97,2,-110,42r-14,-15v-12,-69,-12,-137,0,-204v-28,1,-39,-1,-54,14v-8,1,-14,2,-14,13v0,59,-25,141,14,177v-14,14,-41,28,-69,15v-26,27,-55,39,-94,54v5,20,27,28,26,55r96,-15v15,17,-1,45,0,69v27,45,-16,44,-59,44v-22,0,-42,6,-49,24v0,32,14,58,26,82v43,-7,85,-47,137,-28r0,109r82,-13v2,-17,10,-42,-14,-41xm286,-718v-14,54,-14,137,0,191v19,0,45,-1,55,-13v-26,-12,-3,-57,-14,-82v-14,-33,26,-49,27,-82v44,1,63,-40,110,-28r13,42r0,136v40,-8,80,-17,115,-30v18,-7,30,-3,35,15v-13,38,-1,83,0,124v-28,-12,-13,33,-26,54v25,24,40,65,40,110v-25,22,-15,73,-40,96v-20,-13,-48,-3,-69,0v14,78,-38,101,-68,149v-10,-24,-39,-4,-55,0v0,8,-6,13,-13,13v-8,0,-14,-5,-15,-13r-12,-109r-28,0v-12,24,-3,58,-27,69v-3,14,-25,32,0,40v-1,12,-9,20,-14,28v-41,0,-68,13,-96,27v0,8,-6,13,-13,13v-25,-19,0,-67,-14,-95v-10,-20,-3,-48,0,-68v-45,0,-86,14,-122,27v-13,5,-11,40,-28,28v13,-34,-15,-59,-13,-96v14,-43,25,-94,67,-109v15,1,28,-15,43,-14r0,-27v-33,0,-73,15,-110,13v-13,-11,-1,-43,-14,-55v0,-40,26,-55,40,-81v48,-4,77,-35,109,-55v0,-44,15,-97,0,-136v1,-30,27,-39,28,-68v9,-12,32,-2,41,-14v23,1,51,-15,68,0","w":652},"$":{"d":"400,226v-32,6,-62,8,-99,7r-23,32v34,-1,64,2,92,7xm294,98v-35,29,-38,94,-39,158r39,-45r0,-113xm377,67v-23,-1,-38,8,-61,7v-7,40,-7,68,-7,114r14,7r-14,25v31,13,59,-8,84,-16v0,-50,6,-106,-16,-137xm240,280v13,-72,-17,-169,45,-198v1,-33,50,-15,70,-31v7,-7,31,-15,38,0v-7,32,24,44,19,83v3,30,0,64,10,86v-8,23,-35,32,-38,60v-21,8,-41,-3,-61,-8v-25,6,-56,16,-83,8xm141,-48v-23,1,-38,-15,-45,-30v-15,-1,-30,16,-30,30v52,52,169,129,257,61v-74,0,-131,-34,-182,-61xm89,-100v15,-18,25,-41,38,-61xm377,-170v31,-10,22,-55,9,-78v-33,-57,-85,-100,-162,-112v-18,-4,-35,-9,-52,-15v-35,-37,-70,-96,-54,-167v-13,22,-29,44,-29,77v27,125,162,142,250,205v14,27,31,58,38,90xm384,-573v-53,-23,-147,-13,-129,61v21,-28,56,-46,101,-36v18,0,25,-6,28,-25xm332,-695v-10,2,-25,15,-31,0v-116,10,-169,86,-167,214v2,97,104,96,175,122v37,39,74,57,106,99v-1,28,23,63,0,83v-39,76,-215,76,-252,0v-13,30,-42,52,-45,91v77,59,230,119,320,31v101,-99,68,-377,-68,-396v-63,7,-124,-23,-140,-75v4,-64,67,-92,135,-74v12,3,24,4,35,4r22,-83v-17,-8,-31,2,-45,7xm262,-710v37,-1,64,-10,77,-38v-37,-6,-53,25,-77,38xm278,-854v6,-9,3,-16,7,-30v-48,26,-24,107,-36,167v42,-20,35,-85,29,-137xm361,-884v-12,-16,-27,-15,-52,-16v-13,4,-1,21,-8,30v-7,37,-7,66,-7,108r54,-9v14,-31,12,-68,13,-113xm271,-900v22,-14,62,-22,90,-7r16,30v-6,67,1,139,-45,167v20,46,88,-13,113,24v-23,51,-13,130,-68,151v2,29,-16,2,-29,7v-35,-8,-56,12,-77,25v-5,26,33,22,45,38v77,0,132,23,160,75v52,95,59,286,-25,349v-36,27,-81,44,-119,69v-103,67,-257,-5,-297,-90v6,-9,15,-16,15,-31v38,-28,53,-77,91,-106v64,-16,50,64,123,64v37,0,69,-4,91,-19v6,-40,-16,-60,-23,-92v-57,-50,-159,-52,-205,-113v-27,-37,-74,-74,-54,-137v27,-84,76,-158,151,-199v9,-40,6,-83,9,-128v2,-31,43,-41,38,-77","w":666},":":{"d":"119,-111v-22,24,-33,46,-33,66v38,-14,77,-17,98,-51v9,-14,17,-25,23,-36v-34,1,-54,20,-88,21xm53,-45v26,-24,33,-57,55,-87r-10,-88v-16,34,-49,59,-39,112v5,23,4,44,-6,63xm217,-263v-28,0,-34,0,-55,10v-70,-12,-36,69,-43,121r11,-11r11,11v28,-7,51,-24,87,-11v-9,-42,-23,-73,-11,-120xm32,-132v13,-47,53,-74,66,-121v49,-2,92,-39,144,-17v3,7,-7,7,-14,7v-1,42,13,89,12,131v-34,20,-55,68,-78,98v-47,-12,-91,2,-120,22v-9,-41,21,-91,-10,-120xm21,-395v10,-22,33,-43,44,-65r0,-98r-44,54r0,109xm174,-438v-33,-4,-62,21,-87,6v-1,-2,-2,-4,-1,-6v33,-12,76,-10,109,-22v0,-35,-13,-80,-21,-109v-11,-41,-66,-13,-99,-11r11,109v17,27,-29,36,-37,60v-6,9,-11,21,-17,28v63,22,113,-19,142,-55xm-1,-416v-1,-23,12,-56,0,-76r66,-110v34,1,78,-12,109,0v17,55,48,114,33,186v-7,6,-5,0,-7,-6v-2,-7,-6,-10,-15,-5r-55,54v2,22,-22,1,-32,11v-38,0,-69,0,-99,12v-1,-23,12,-45,0,-66","w":259},";":{"d":"171,-53v-24,35,-22,69,-36,111v22,-31,14,-81,36,-111xm171,-102v-24,11,-49,25,-85,24v-10,9,-25,33,-26,49v49,-12,102,-20,111,-73xm86,-177r-38,75r0,49r38,-49r0,-75xm98,-114v30,36,80,-25,110,12v-9,35,-38,69,-37,110v26,-23,49,-62,75,-86v46,-40,1,-110,12,-172v-48,25,-95,21,-148,37xm122,-238v54,-14,101,-11,148,-37r13,0v-14,48,1,98,12,135v-51,91,-112,175,-185,247v-21,-1,-8,-28,-2,-40v12,-26,24,-60,14,-96v-33,-2,-59,37,-86,13v0,-29,0,-66,-12,-86v23,-37,59,-67,62,-124v9,-7,0,-31,24,-22v5,3,12,2,12,10xm184,-423v-36,0,-85,25,-111,0v-27,13,-23,37,-37,62v43,-4,98,12,117,-21v8,-15,19,-29,31,-41xm86,-584r-62,87v-1,39,13,59,12,99v6,-32,42,-39,42,-80v0,-37,-1,-75,8,-106xm86,-436v36,1,73,-13,110,-12r12,-12r26,-148v-49,-11,-90,10,-136,12r0,124r12,0v-1,15,-15,26,-24,36xm-1,-485v23,-34,60,-56,61,-111v15,-2,27,-47,38,-12v54,0,106,-25,160,-12v-20,57,-40,100,-24,172v6,2,12,3,12,12v-34,-12,-14,32,-26,50v-12,-9,0,-38,-12,-50v-16,22,-48,43,-49,75v-30,47,-107,-12,-148,24v1,-53,-1,-107,-12,-148","w":312},"<":{"d":"370,-166r-11,11v11,39,-18,64,-10,102v16,-20,43,-44,22,-77v-4,-12,-6,-21,-1,-36xm277,-73v26,3,31,31,62,30r0,-51v-50,-32,-103,-49,-144,-92v-19,-33,-52,-40,-72,-72v-32,-22,-63,-66,-92,-93v-19,11,-13,35,-10,62v58,66,131,119,205,169v19,14,36,29,51,47xm359,-464v-9,10,-10,6,-10,21r10,0r0,-21xm195,-361v11,12,20,9,31,21r103,-103r0,-41v-53,30,-92,81,-134,123xm339,-515r0,-82r-72,21v-82,72,-195,112,-246,215v37,1,42,31,63,49v27,24,62,42,80,74v50,50,110,92,175,124r20,-83v-33,-55,-95,-83,-133,-133v-19,-9,-37,-21,-62,-21v-10,-9,-6,-12,4,-15v11,-4,23,-5,27,-15xm267,-587v22,2,40,-22,62,-20v10,-9,6,-11,20,-11r0,93v13,10,13,34,0,41v-11,0,-1,-15,-10,-21v0,24,0,56,10,72v-11,0,-9,11,-10,21r-10,-10v-36,24,-69,57,-93,92v42,44,95,73,134,123v10,0,21,11,10,21v-21,39,40,86,-10,113v-11,18,0,52,-31,51v-61,-31,-98,-88,-164,-113v-63,-41,-112,-102,-165,-154v-14,-48,-1,-103,31,-123v57,-79,154,-113,226,-175xm370,-166r-11,11v11,39,-18,64,-10,102v16,-20,43,-44,22,-77v-4,-12,-6,-21,-1,-36xm277,-73v26,3,31,31,62,30r0,-51v-50,-32,-103,-49,-144,-92v-19,-33,-52,-40,-72,-72v-32,-22,-63,-66,-92,-93v-19,11,-13,35,-10,62v58,66,131,119,205,169v19,14,36,29,51,47xm359,-464v-9,10,-10,6,-10,21r10,0r0,-21xm195,-361v11,12,20,9,31,21r103,-103r0,-41v-53,30,-92,81,-134,123xm339,-515r0,-82r-72,21v-82,72,-195,112,-246,215v37,1,42,31,63,49v27,24,62,42,80,74v50,50,110,92,175,124r20,-83v-33,-55,-95,-83,-133,-133v-19,-9,-37,-21,-62,-21v-10,-9,-6,-12,4,-15v11,-4,23,-5,27,-15xm267,-587v22,2,40,-22,62,-20v10,-9,6,-11,20,-11r0,93v13,10,13,34,0,41v-11,0,-1,-15,-10,-21v0,24,0,56,10,72v-11,0,-9,11,-10,21r-10,-10v-36,24,-69,57,-93,92v42,44,95,73,134,123v10,0,21,11,10,21v-21,39,40,86,-10,113v-11,18,0,52,-31,51v-61,-31,-98,-88,-164,-113v-63,-41,-112,-102,-165,-154v-14,-48,-1,-103,31,-123v57,-79,154,-113,226,-175","w":401},"=":{"d":"288,-136v-22,-13,-60,-11,-95,-12v-36,13,-72,11,-107,24v-15,1,-26,29,-36,36v99,11,174,-15,238,-48xm98,-243v-32,30,-47,76,-48,131r48,-47v-1,-24,12,-62,0,-84xm300,-231v-12,-10,-1,-38,-24,-36v-40,23,-114,1,-155,24v4,30,-9,60,3,77v1,2,0,4,-3,7v62,1,120,-14,179,0r0,-72xm133,-255v39,-34,129,-1,167,-36v11,1,10,14,12,24v-1,34,13,85,12,119v-32,24,-73,45,-109,64v-57,29,-137,-6,-189,20r-12,-12v27,-27,10,-84,32,-122v16,-27,41,-48,63,-69v12,-12,25,-11,24,12xm50,-338v87,-13,184,-14,238,-60v-88,10,-193,-5,-238,60xm50,-374v68,2,38,-81,36,-131v-50,20,-30,87,-36,143r0,-12xm336,-422v-23,-20,0,-65,-12,-95v-39,-5,-69,-18,-109,-13v-35,4,-70,7,-106,13r0,119v71,-13,156,-11,227,-24xm98,-541v75,-1,155,-10,214,12r36,-12v11,12,-12,26,0,36r0,95v-7,17,-23,14,-36,24v-56,64,-178,51,-286,60v23,-49,-6,-133,38,-168v12,-15,27,-27,34,-47","w":382},">":{"d":"44,-130r-11,44v26,14,39,51,76,54v31,-56,-43,-64,-65,-98xm349,-380v-58,104,-142,186,-207,283r-11,55v70,-76,116,-178,177,-263v16,-22,48,-35,41,-75xm142,-380v23,3,28,50,52,25v7,-6,21,-14,13,-25v-37,-47,-98,-86,-174,-87r0,43v35,11,68,38,109,44xm44,-151v22,21,42,44,76,54r152,-196v19,-40,66,-85,87,-120r11,0v-24,-34,-71,-45,-109,-65v-41,-52,-128,-50,-163,-109r-65,98v100,3,152,60,207,109v-13,12,-23,37,-44,44v7,3,15,17,9,24v-8,2,-12,-14,-20,-14r-51,50v-26,21,-35,54,-54,81v-7,10,-15,10,-25,0v9,15,-10,29,-11,44xm11,-489v33,-33,65,-76,87,-120v21,8,31,31,44,44v88,43,174,86,250,141v5,27,-48,40,-18,72v-51,45,-82,111,-122,168v-30,43,-56,87,-78,131v-33,0,-26,60,-65,43v-26,-11,-41,-42,-76,-43r-11,-11v1,-32,9,-70,-11,-87v0,-21,43,-22,22,-44v1,-14,15,-12,22,-22v0,11,11,11,21,11v27,-48,46,-91,87,-130r-32,-33v-42,-9,-65,-43,-120,-33v-1,-35,12,-54,0,-87","w":408},"?":{"d":"242,25v-29,-14,-37,27,-65,13v-12,0,-43,14,-41,28v54,11,54,-41,106,-41xm164,25r0,-105v-26,23,-28,70,-28,118xm203,11v27,-13,52,-11,79,-24r-13,-106v-23,12,-48,13,-79,13r0,105r13,-12v8,6,5,18,0,24xm203,-119v26,1,66,-14,92,-13v0,57,0,109,13,157v-12,10,-21,-4,-26,-14v-24,13,-37,24,-53,41r0,14v-48,-2,-90,38,-131,11v34,-28,16,-96,26,-144v28,-8,39,-43,61,-57v5,-3,11,-2,18,5xm150,-172v27,1,38,-14,65,-13v2,-29,46,-13,54,-40v-32,27,-112,-12,-119,53xm190,-394v-40,13,-40,65,-54,104v14,37,-13,68,0,105v23,-58,54,-134,54,-209xm57,-592v-36,52,24,84,28,132v24,-11,38,-35,39,-66xm320,-552v-14,-33,-14,-82,-51,-92v-44,28,-89,62,-105,118v28,-23,83,-77,118,-26v-13,34,-10,87,-40,104v36,-24,77,-46,78,-104xm361,-736v-44,-25,-111,-15,-171,-13v-52,28,-115,55,-119,130v16,29,36,63,65,79v40,-47,66,-111,146,-117v47,11,52,61,66,105v-17,71,-75,113,-133,144v-2,61,-25,106,-25,170v42,15,89,-8,118,-25v-13,-42,12,-85,0,-131v33,-30,86,-34,105,-79v43,-98,-10,-200,-52,-263xm46,-644v40,-78,121,-133,223,-133v49,0,70,19,105,41v47,68,106,186,52,288v-28,27,-71,32,-92,66r-14,131v-39,21,-59,74,-100,93v-12,6,-27,6,-43,-1v-29,-3,-51,27,-65,0v11,-2,10,-14,12,-26v-38,-9,0,-43,0,-66r0,-105v44,-60,124,-88,131,-184v-12,-25,-43,0,-65,0v-36,38,-77,76,-92,132v-9,0,-12,-5,-13,-13v-16,-30,-31,-54,-39,-93v-3,-14,-18,3,-27,0v13,-39,28,-77,27,-130","w":468},"@":{"d":"526,-135v30,-34,-26,-43,-35,-68v-38,19,10,46,16,68r19,0xm440,-287v-14,-11,-1,-39,-16,-51v-15,-12,-30,-35,-52,-36v-20,41,-16,93,17,121v20,-1,38,-22,51,-34xm286,-390v-33,37,-19,115,-51,154v5,47,51,72,86,101v17,14,48,2,68,0v-68,4,-100,-39,-119,-85v-23,-55,-15,-125,16,-170xm372,-390v31,-2,45,16,58,30v10,11,18,31,25,57r0,-87v-15,-19,-72,-46,-83,0xm353,-390v6,-23,28,-38,52,-51v42,3,51,41,70,67v18,41,-3,76,-20,103v-12,19,-51,36,-83,35v-32,-45,-34,-94,-19,-154xm507,-17v-79,53,-260,51,-320,-15r-52,-53v-72,-144,-7,-333,67,-423v-50,66,-82,129,-119,205v-50,58,-49,195,0,254v29,60,73,81,152,83v101,36,213,-3,272,-51xm626,-303v-2,-33,20,-70,19,-102v-17,-65,-20,-139,-87,-154v63,46,69,147,68,256xm558,-508v-11,65,0,157,-16,221r0,16v19,1,31,33,51,18v16,-69,16,-170,0,-239v-33,-28,-36,-114,-102,-84r-221,100v-32,82,-86,183,-51,291v4,55,46,81,102,84v48,36,134,10,170,-17v-18,-16,-10,-58,-51,-51v-17,52,-90,96,-149,53v-21,-15,-38,-35,-56,-53v-1,-38,-16,-85,0,-118v10,-112,86,-182,170,-221v22,-2,52,-15,70,0r16,-35v22,18,75,-15,67,35xm526,-594v-17,-13,-12,-15,-35,-16v-86,0,-154,34,-205,102r35,0v64,-47,148,-86,255,-86v-18,2,-33,-17,-50,-16r0,16xm253,-476v47,-87,126,-152,254,-152v90,0,114,81,138,152v33,95,-7,200,-52,256v-22,-3,-29,-30,-51,-33v-30,-12,-17,-52,-16,-85v2,-58,15,-112,16,-170r-35,0r0,84v-35,-16,-19,-79,-84,-70v-104,14,-126,116,-145,212v-17,87,58,156,146,113r67,-67v19,2,15,32,35,33v9,15,29,14,32,34v-11,15,-31,29,-32,51v-49,31,-96,52,-173,52v-66,-19,-131,-35,-151,-103v-32,-108,7,-219,51,-288r0,-19xm337,-644v-86,109,-180,220,-209,380v-15,82,4,182,61,216v22,13,50,30,81,31v101,35,186,18,256,-49v87,-23,132,-97,152,-187v4,-6,16,-14,16,0v68,-117,30,-322,-33,-408v-49,-67,-167,-80,-249,-36v-28,15,-56,29,-75,53xm353,-678v60,-42,112,-52,205,-52v56,0,89,41,120,69v63,86,103,276,33,390r0,51r-17,0v-24,85,-91,137,-152,187v-41,54,-112,87,-192,93v-122,10,-227,-25,-288,-89v-60,-63,-48,-196,-7,-269v34,-60,79,-119,113,-178v49,-85,118,-151,185,-218r0,16xm526,-135v30,-34,-26,-43,-35,-68v-38,19,10,46,16,68r19,0xm440,-287v-14,-11,-1,-39,-16,-51v-15,-12,-30,-35,-52,-36v-20,41,-16,93,17,121v20,-1,38,-22,51,-34xm286,-390v-33,37,-19,115,-51,154v5,47,51,72,86,101v17,14,48,2,68,0v-68,4,-100,-39,-119,-85v-23,-55,-15,-125,16,-170xm372,-390v31,-2,45,16,58,30v10,11,18,31,25,57r0,-87v-15,-19,-72,-46,-83,0xm353,-390v6,-23,28,-38,52,-51v42,3,51,41,70,67v18,41,-3,76,-20,103v-12,19,-51,36,-83,35v-32,-45,-34,-94,-19,-154xm507,-17v-79,53,-260,51,-320,-15r-52,-53v-72,-144,-7,-333,67,-423v-50,66,-82,129,-119,205v-50,58,-49,195,0,254v29,60,73,81,152,83v101,36,213,-3,272,-51xm626,-303v-2,-33,20,-70,19,-102v-17,-65,-20,-139,-87,-154v63,46,69,147,68,256xm558,-508v-11,65,0,157,-16,221r0,16v19,1,31,33,51,18v16,-69,16,-170,0,-239v-33,-28,-36,-114,-102,-84r-221,100v-32,82,-86,183,-51,291v4,55,46,81,102,84v48,36,134,10,170,-17v-18,-16,-10,-58,-51,-51v-17,52,-90,96,-149,53v-21,-15,-38,-35,-56,-53v-1,-38,-16,-85,0,-118v10,-112,86,-182,170,-221v22,-2,52,-15,70,0r16,-35v22,18,75,-15,67,35xm526,-594v-17,-13,-12,-15,-35,-16v-86,0,-154,34,-205,102r35,0v64,-47,148,-86,255,-86v-18,2,-33,-17,-50,-16r0,16xm253,-476v47,-87,126,-152,254,-152v90,0,114,81,138,152v33,95,-7,200,-52,256v-22,-3,-29,-30,-51,-33v-30,-12,-17,-52,-16,-85v2,-58,15,-112,16,-170r-35,0r0,84v-35,-16,-19,-79,-84,-70v-104,14,-126,116,-145,212v-17,87,58,156,146,113r67,-67v19,2,15,32,35,33v9,15,29,14,32,34v-11,15,-31,29,-32,51v-49,31,-96,52,-173,52v-66,-19,-131,-35,-151,-103v-32,-108,7,-219,51,-288r0,-19xm337,-644v-86,109,-180,220,-209,380v-15,82,4,182,61,216v22,13,50,30,81,31v101,35,186,18,256,-49v87,-23,132,-97,152,-187v4,-6,16,-14,16,0v68,-117,30,-322,-33,-408v-49,-67,-167,-80,-249,-36v-28,15,-56,29,-75,53xm353,-678v60,-42,112,-52,205,-52v56,0,89,41,120,69v63,86,103,276,33,390r0,51r-17,0v-24,85,-91,137,-152,187v-41,54,-112,87,-192,93v-122,10,-227,-25,-288,-89v-60,-63,-48,-196,-7,-269v34,-60,79,-119,113,-178v49,-85,118,-151,185,-218r0,16","w":767},"A":{"d":"144,5v-64,-17,-79,32,-93,79v93,-36,218,-30,254,-123xm696,-68v-26,14,-54,10,-71,29v-42,-4,-95,-20,-89,44v25,-16,55,-13,74,-29v16,-30,88,13,86,-44xm458,-235v-31,80,39,131,40,211v19,-82,-19,-148,-40,-211xm443,-250v-34,0,-64,1,-88,15r0,73v65,8,71,-45,88,-88xm370,-372r-15,-30r0,30r15,0xm355,-490r-13,44v38,-1,20,74,72,59v-17,-35,-57,-53,-59,-103xm324,-347v-18,-43,-3,-108,3,-155v3,-22,47,-47,57,-17v10,31,3,76,30,93v16,17,42,34,29,67v-19,49,-73,3,-119,12xm36,32v7,-20,40,-33,30,-56r49,-137v47,-129,89,-264,103,-424r-87,110v-18,181,-68,334,-95,507xm566,-68v40,-15,66,-12,100,-28v-73,-206,-175,-400,-267,-590v-57,17,-110,27,-152,59v-15,232,-82,412,-156,588v15,-4,30,-17,45,-13v1,10,-5,18,-5,28v80,0,133,-17,193,-44v3,-32,12,-72,-19,-81v33,-30,2,-96,37,-130v47,18,110,-7,143,-28r0,13v31,63,9,176,81,198r0,28xm79,-431v-17,-4,-9,-37,0,-44r39,-35v35,-32,70,-66,85,-117v56,-40,120,-83,211,-87v25,6,3,29,13,44v102,164,176,350,269,521v-15,49,66,69,16,110v16,-3,41,-26,50,0v-1,30,-42,18,-50,44v-77,-16,-127,18,-196,27v-5,5,-18,13,-18,0v-25,-65,-33,-140,-84,-181r-59,16v27,96,-46,147,-95,193v-72,24,-143,38,-224,53v-17,-2,-14,14,-29,13r-13,-13v13,-92,34,-179,52,-267v17,-87,33,-175,33,-277","w":774},"B":{"d":"529,-35r-253,48v-30,30,-83,33,-96,80r64,0v92,-47,208,-65,285,-128xm370,-227v1,34,-1,47,16,64v17,1,31,-18,48,-16v-13,-28,-37,-34,-64,-48xm481,-241v-34,-16,-57,-62,-111,-47v-16,0,-13,16,-14,31v47,-2,78,32,110,47v15,1,14,-17,15,-31xm339,-305v76,-47,129,32,175,64v14,21,-20,34,-33,47v-30,31,-67,61,-125,64r-17,-17v30,-26,3,-76,0,-110v-28,-10,-3,-32,0,-48xm308,-416v18,-2,35,7,31,-16v1,-32,-32,-48,-63,-48xm85,-575r-16,31v-47,11,-12,60,0,80v-17,189,53,316,65,491v2,18,8,33,30,33v9,-25,47,-30,48,-64r-96,-364v-15,-65,-1,-152,-31,-207xm370,-544v-13,-22,-45,-64,-76,-35v-13,12,-30,29,-18,52v29,30,82,32,94,79v16,-31,18,-65,0,-96xm244,-544v-17,0,-15,17,-32,17r0,-33v53,-1,67,-60,127,-47v26,28,62,43,63,96v16,42,-8,88,-32,111v-28,15,-44,11,-62,32v-17,-1,-15,1,-16,-17v-2,-58,-34,-94,-64,-126v0,-16,32,-17,16,-33xm308,-19v17,-3,32,-47,48,-16r0,16v67,-33,178,-20,221,-80v12,-17,18,16,32,0v61,-35,102,-114,80,-206v-10,-43,-57,-48,-112,-47v-18,-16,-44,16,-63,0v-18,-15,1,-33,15,-33v18,-79,94,-197,16,-270v-125,-65,-315,-25,-412,32r0,16r-17,0v1,224,69,388,128,556r15,32r49,0xm53,-288v-27,-73,10,-181,-48,-223v40,-38,65,-81,95,-128v75,-47,170,-62,270,-80v63,17,143,16,191,48v91,61,32,209,0,286v67,1,132,19,159,64v23,114,-29,196,-103,239v-31,18,-58,40,-72,78v-80,65,-199,84,-301,128r-96,0v-89,-88,-47,-284,-95,-412","w":736},"C":{"d":"85,-278v-24,27,-62,56,-46,107v-13,143,143,136,212,211v75,16,152,46,243,30v30,-31,45,-59,75,-90v0,-12,-11,-5,-15,0v-113,63,-304,25,-374,-44v-52,-51,-93,-117,-95,-214xm494,-535v-63,-2,-137,-12,-141,53v-10,24,-23,53,-11,84v30,-19,80,-75,121,-31v12,-32,45,-64,31,-106xm509,-671v-27,-14,-55,-15,-91,-15v-152,47,-220,186,-287,317v-9,18,-1,37,-3,56v-1,3,-6,5,-14,5v-22,154,77,255,212,288v109,26,170,-43,273,-46v30,-22,0,-69,16,-105r-106,29v-41,31,-89,-15,-137,0v-66,-31,-76,-113,-76,-196v0,-82,17,-156,46,-212v38,-28,107,-17,167,-16v14,-13,2,-42,0,-59v-2,-17,-28,-36,0,-46xm509,101v-68,-14,-153,12,-197,-31v-54,15,-79,-28,-121,-45v-64,-26,-129,-50,-167,-106v1,-45,-16,-107,-15,-152v31,-28,60,-76,91,-105v66,-160,143,-327,318,-379v45,-1,92,16,122,31v13,52,1,115,14,166v-47,1,-43,59,-60,91v-2,10,16,28,0,31v-27,-13,-56,-36,-91,-17v-30,16,-62,30,-77,62v-2,100,13,191,109,194v57,3,103,-19,149,-28v17,-4,13,-29,31,-30v27,34,14,108,30,151v1,31,-31,30,-46,46v-33,36,-57,86,-90,121","w":664},"D":{"d":"627,-92v-99,81,-274,106,-445,80v-68,-10,-78,47,-112,79v63,31,148,2,223,16v115,-20,216,-54,298,-115v18,-13,36,-32,36,-60xm356,-171v61,-25,159,-36,136,-125v-17,-66,-64,-113,-151,-113v15,75,14,152,15,238xm531,-267v-1,-9,7,-15,16,-15v17,-46,31,-136,-16,-159v-60,-29,-95,-88,-175,-95r-15,95v88,11,149,61,181,129v6,14,9,29,9,45xm356,-553v110,20,194,72,238,160v0,70,-17,114,-47,159v-68,37,-127,95,-238,79v31,-73,33,-169,15,-254v-16,-1,-14,0,-15,-16v-13,0,-5,-12,0,-16v14,-26,15,-75,15,-112v0,-8,8,-11,16,-11v8,0,16,3,16,11xm182,-647v-32,30,-38,74,-64,111v-17,201,-33,408,-79,588v32,-33,54,-70,95,-96v30,-189,31,-402,48,-603xm392,-686v-68,-17,-188,-14,-188,76v0,9,-3,18,-7,26v17,184,-31,353,-15,540v205,37,387,-25,508,-111v55,-40,58,-112,47,-190v-3,-23,-3,-44,1,-64v-92,-111,-188,-238,-346,-277xm23,115v-16,-28,-1,-64,0,-96v46,-171,62,-359,63,-572v45,-40,60,-108,111,-142r159,-32v135,34,225,115,319,191r79,127v1,65,31,133,12,199v-11,38,-62,63,-82,96v-26,43,-43,93,-90,118v-143,76,-340,119,-555,95","w":788},"E":{"d":"41,121v87,-13,182,-32,275,-32v43,0,78,-48,113,-16v37,-1,34,-42,49,-66v-136,4,-279,-11,-368,48v-25,17,-49,37,-69,66xm462,-300v-40,0,-68,1,-97,16r0,32v31,-12,91,5,97,-48xm316,-544v53,-3,112,-11,146,16v31,2,69,11,65,-33v-65,16,-153,-15,-211,17xm89,-592r-48,48r12,310v4,112,4,222,-12,323r65,-65r0,-97v-32,-154,-1,-350,-17,-519xm284,-576v79,-16,182,0,259,-16v-1,-32,-16,-69,0,-98v-73,8,-145,16,-217,26v-72,10,-139,23,-204,39v-17,146,0,301,0,454v-1,55,18,102,16,163v15,-11,27,-34,48,-16v8,8,9,13,4,14v-5,1,-12,2,-20,2v109,-3,236,6,325,-16v30,-26,0,-92,16,-130r-33,-17v-37,19,-91,31,-129,49v-43,-17,-3,-84,-33,-114v15,-20,-13,-70,17,-80v44,0,92,-2,129,-17v31,-12,18,-67,0,-81v-72,2,-117,35,-178,49v-17,-32,-15,-82,-16,-130v-11,0,-17,-6,-17,-17v27,-8,18,-45,33,-64xm8,138v16,-18,1,-61,16,-82v0,-97,-1,-195,-2,-292v-1,-97,-6,-194,-14,-292r0,-16v67,-18,56,-124,147,-113v140,-16,268,-46,421,-49v-37,33,10,120,-26,160v-7,17,-11,38,-23,51v-84,15,-147,-65,-227,-17r0,114v61,-14,106,-47,178,-49v31,27,18,89,33,131v-40,6,-47,50,-65,80r-81,16r0,49v68,31,134,-79,178,0v-16,47,-1,111,0,163v-51,23,-49,111,-119,114v-12,0,-26,-6,-42,-17r-181,31v-60,9,-125,18,-193,18","w":603},"F":{"d":"99,88v38,-2,66,-31,107,-16v29,-28,44,-56,62,-91v-46,45,-153,31,-169,107xm314,-250v20,-30,94,16,92,-46v-46,0,-77,15,-123,15v-1,15,17,32,31,31xm283,-511v38,-15,90,-12,92,-62v-49,-1,-93,11,-92,62xm68,72v17,-36,47,-70,47,-122v0,-174,15,-370,-16,-538v-45,59,16,170,-31,230v-15,140,0,286,0,430xm252,-557v44,-28,86,-47,154,-47r15,-91v-117,1,-224,22,-291,76v2,91,17,193,8,287v-7,74,6,146,6,220r0,108v61,1,83,-43,139,-46v17,-67,-1,-143,-31,-184v17,-26,-15,-56,0,-78v64,0,121,-30,185,-15v-2,-19,-16,-47,0,-62v-1,-14,0,-32,-16,-31v-50,-29,-117,15,-169,-14v14,-12,16,-25,16,-46v-30,-10,0,-53,-16,-77xm53,134v-29,-22,-16,-67,0,-93v-10,-95,-43,-188,-22,-289v17,-83,47,-171,22,-263v33,-49,33,-129,91,-154v97,-15,183,-44,293,-46r15,16v-3,37,-31,66,-15,107v-44,-2,-48,32,-62,61v-35,15,-107,20,-76,78v53,0,96,-1,138,-16v44,25,19,100,31,153v-62,-4,-42,120,-107,78v-31,1,-47,0,-62,15v2,69,32,112,31,184v-26,28,-61,58,-78,92v-2,14,16,1,16,15v-25,30,-84,14,-124,31v-30,12,-70,4,-91,31","w":487},"G":{"d":"495,63v28,17,61,-14,91,0v18,-19,14,-52,31,-76v-59,-28,-88,46,-122,76xm556,-74r-51,70v-3,9,-1,16,6,21v14,-31,46,-45,45,-91xm480,-210v-38,0,-49,-1,-77,-17r-30,47v36,0,48,2,76,14xm342,-256v14,12,0,29,0,46v57,-14,74,-69,92,-122xm99,-394r-46,62v-21,100,-20,236,46,288v82,66,240,127,365,61r61,-76v-21,55,-91,48,-137,76v-101,13,-130,-74,-214,-91r-75,-136v-15,-61,-15,-122,0,-184xm525,-484v-30,-29,-99,-16,-152,-16v-32,20,-69,47,-77,91v26,-26,71,-28,107,-44v36,-16,108,15,122,-31xm235,-227v-14,-40,16,-85,0,-121v42,-34,35,-103,78,-136v53,-40,169,-78,243,-30r61,-78v-10,-32,-51,-39,-74,-57v-6,-5,-7,-11,-4,-19v-136,-78,-264,30,-334,107v-74,81,-106,200,-91,351r77,105v63,31,97,105,197,92v115,10,116,-117,198,-153v45,31,-28,84,0,122v27,16,61,1,92,0r15,-105v-44,-53,13,-117,0,-183v-77,16,-136,-17,-213,-16v-31,15,-30,61,-46,92v15,1,14,0,15,15r62,0v44,39,-35,60,-47,92v-25,27,-79,62,-122,30v-54,-17,-108,-35,-107,-108xm221,-607v71,-61,204,-140,318,-75r31,0v7,46,70,43,92,75v-25,41,-71,63,-76,123v-64,-17,-78,71,-137,45v-76,2,-131,38,-183,76v-4,71,-38,171,26,205v32,29,101,37,142,9v-29,-17,-78,-17,-107,0v-32,-25,15,-79,-14,-107r151,-122v13,13,26,12,47,15v71,11,146,16,212,0v15,76,-45,145,0,214v-28,43,-2,138,-76,136v-28,31,-22,86,-61,107v-38,-31,-139,30,-137,-45v-47,40,-129,17,-197,14v-94,-47,-199,-88,-229,-198v-60,-217,98,-336,182,-472r16,0","w":755},"H":{"d":"54,90v49,0,73,-30,122,-30v34,29,32,-39,61,-46v-48,0,-89,30,-137,14v-16,14,-31,47,-46,62xm605,-17r-123,15v-28,-29,-32,16,-46,30v70,30,135,-8,169,-45xm467,-216v-46,33,-63,95,-50,172v3,19,4,39,4,58r15,-31v60,-36,0,-135,31,-199xm252,-170v41,-15,92,0,138,0v3,-5,15,-13,15,0v10,-27,47,-41,31,-77v-48,32,-134,-16,-184,16r0,61xm100,-599v-19,21,-42,40,-46,76v-4,46,-7,94,-9,143v-2,49,-3,97,-3,146v0,49,1,97,3,144v2,47,5,92,9,134r46,-46v15,-193,-1,-398,0,-597xm390,-415v31,-1,46,1,61,-16r-15,-198v-54,41,-34,135,-46,214xm237,-17v-16,-70,0,-160,-15,-230v16,-28,47,-2,76,-15v28,-13,51,7,82,2v37,-7,85,-25,117,-2v-28,67,-2,156,0,230r138,-16r16,-30v-31,-183,-17,-399,-32,-597v-36,28,-103,2,-152,14v-18,82,3,157,15,230v-15,13,-26,41,-48,43v-22,7,-60,-10,-52,29v0,3,-3,5,-7,5v-13,-14,-16,-9,-16,-31v-53,0,-79,1,-122,16v-42,-61,-18,-162,-15,-246v-38,-14,-74,16,-108,0v-2,119,17,239,16,353r15,31r-15,15v-4,72,-24,149,0,214v43,16,64,-16,107,-15xm375,-415v13,-80,-26,-197,46,-230v-16,-43,38,-30,61,-46v54,3,117,10,137,-30v9,14,35,1,46,15r-14,15v3,46,5,91,6,135r2,266v1,44,3,89,6,135v18,35,14,82,0,123v-34,19,-57,57,-92,76v-58,13,-101,32,-168,16v-46,-52,16,-139,-15,-200v-38,-13,-106,-30,-138,0v-2,46,-10,99,31,108v1,15,0,30,-15,30r0,-15v-32,46,-45,91,-77,137r-15,-14v16,-1,14,0,15,-16v-67,-16,-86,46,-153,30v-40,4,-26,-25,-16,-46v-15,-197,-15,-414,0,-611r78,-92v51,-1,96,-1,122,-32v56,59,-12,201,46,261v36,0,65,-17,107,-15","w":691},"I":{"d":"85,112v48,-1,113,37,148,-4v24,-29,42,-67,67,-94r-132,0v-42,16,-77,48,-83,98xm152,-85v-17,-22,30,-53,-17,-50v31,-152,17,-343,33,-510v-88,89,-70,267,-98,411v-19,97,-1,211,0,314r65,-83v-16,-33,-16,-68,17,-82xm202,-167v-15,27,-34,77,-34,115r-16,0r0,32r181,0v16,-193,-16,-398,0,-593v29,-79,-46,-73,-118,-73v-12,0,-22,-4,-30,-9v-17,168,16,356,-17,511v24,0,17,3,34,17xm53,162v-30,-26,-16,-85,-16,-132v0,-135,26,-234,33,-362r15,-264v44,-25,50,-80,83,-115v68,-17,135,33,198,0v15,17,-17,16,-17,33r17,692v-10,30,-39,-14,-49,16r-100,132v-30,-16,-42,-14,-82,-17v-33,-2,-74,-26,-82,17","w":422},"J":{"d":"91,-197v-13,29,-29,43,-47,63v31,69,28,160,109,187v74,25,164,-5,217,-32r-155,0v-68,-57,-122,-107,-124,-218xm433,-648r-30,62v15,38,-13,81,0,125v37,128,-6,264,-48,358r78,-77v32,-140,15,-322,0,-468xm464,-664v16,62,0,156,16,218v-28,124,20,313,-110,358v-30,0,-62,1,-78,15v-9,-10,-32,-16,-15,-30v-66,-21,-63,-100,-92,-155v-21,0,-53,1,-63,15v-15,93,16,171,93,233v99,6,219,17,249,-63r0,17v31,-16,46,-48,78,-63v75,-162,17,-381,31,-591v-41,14,-82,18,-109,46xm370,-539v0,-15,-22,-1,-30,-15v15,-47,56,-71,78,-110v38,-42,107,-46,155,-78r15,17v-10,209,56,460,-40,619v-21,35,-48,68,-84,96v-80,33,-137,92,-233,109v-71,-17,-151,-31,-172,-94r-46,-139v19,-48,66,-68,78,-124v31,-15,62,-34,109,-33v18,21,15,35,31,63v2,57,22,99,78,109v72,-24,68,-121,77,-202v8,-72,-17,-150,-16,-218","w":615},"K":{"d":"110,107v44,-15,81,-49,142,-32v13,-27,32,-58,32,-95v-24,-3,-28,15,-45,20v-52,26,-140,23,-129,107xm457,44v41,-14,107,-32,158,-32r63,-79v-32,15,-80,17,-127,16v-46,16,-73,55,-94,95xm299,-255v-15,65,21,102,32,157r126,95v15,-18,32,-31,31,-64v-79,-47,-126,-126,-189,-188xm110,28v0,-70,-1,-131,-15,-190v16,-161,-48,-274,-32,-441r-31,47v0,48,1,98,2,150v1,52,6,103,13,151v-22,109,18,192,18,303v0,21,6,35,14,43xm536,-67v37,-16,102,-1,126,-31v-19,-51,-75,-74,-94,-126v-60,-43,-122,-94,-190,-126v37,-137,137,-227,190,-348v-36,15,-96,-2,-95,48r-16,-16r-53,56v-44,48,-78,102,-101,168v-7,19,-27,49,-51,28r-22,-126v-6,-41,-9,-79,-9,-126v-33,-31,-85,15,-126,0r-16,32r16,189v30,130,31,281,47,425v9,1,14,8,15,17r159,-48v-15,-13,-17,-25,-17,-47v-1,-63,-61,-118,-15,-174v2,-16,20,3,32,0v59,75,137,157,220,205xm426,-666v14,-8,-1,-31,15,-32v66,0,104,-47,174,-30r0,15v-76,108,-157,215,-206,347v63,78,182,87,221,189v39,24,55,70,95,94r-79,95v-2,14,17,1,16,16v-7,26,-33,2,-47,16v-71,-16,-131,17,-189,31v-3,-18,7,-23,15,-31v-16,-2,3,-20,0,-32v-25,-42,-77,-47,-110,-79v14,71,-52,82,-63,142v15,1,32,-1,31,16v-11,16,-48,-15,-47,16r-15,15v-8,-8,-10,-23,0,-31v-59,-14,-83,46,-142,31r-32,32v-28,-8,-1,-45,-16,-63v-13,-104,-48,-224,-15,-331v-29,-75,-17,-181,-32,-268r63,-142v2,-11,-18,-31,0,-31v64,0,110,-19,174,-17r15,32v-16,79,1,157,16,221v49,-77,93,-158,158,-221","w":739},"L":{"d":"401,86v16,1,35,-1,34,16v48,-29,80,-81,117,-117v-45,32,-98,-15,-151,0v-81,-1,-160,50,-235,17v-57,5,-78,60,-101,100r33,18xm31,-519v49,166,18,389,34,588r51,-100v16,-207,-18,-399,-18,-605xm267,-703v0,40,-44,23,-51,0v-36,1,-79,0,-100,16v0,234,37,435,33,672v89,20,179,-13,257,-23v44,-6,83,7,129,7v49,-14,1,-101,33,-135r-117,-16v-46,16,-118,-1,-134,49v-10,14,-20,2,-33,0v-1,-16,19,-33,16,-49v-15,-71,0,-157,0,-235v-32,-79,-2,-200,-33,-286xm98,-721v21,14,46,4,68,0v32,25,76,-5,114,-1v29,3,31,57,34,88v7,72,3,149,3,217r0,235v87,-2,188,-25,271,-25v6,0,11,3,15,7v-14,46,-36,114,-17,169r0,33r-118,100v0,24,-29,18,-48,22v-13,-1,-19,-7,-19,-22v-106,15,-216,50,-336,34v-39,3,-35,-34,-34,-67v6,-196,30,-420,-33,-571v47,-61,66,-146,100,-219","w":620},"M":{"d":"224,0v-27,14,-71,31,-112,15v-25,21,-27,60,-28,99r99,-15v26,-26,40,-51,41,-99xm592,29v40,-14,62,-14,112,-14r70,-84v-68,26,-167,12,-182,98xm380,-154v25,2,37,-13,56,-14v28,-25,26,-53,43,-85v-29,16,-57,12,-85,28xm252,-408v-14,114,28,186,99,226v67,-103,-72,-144,-99,-226xm592,0v26,-41,42,-77,42,-140v-27,-93,-28,-204,-42,-311r-43,113v27,102,29,224,43,338xm56,99v12,-25,28,-51,28,-84v0,-99,-1,-195,-2,-289v-1,-94,-5,-190,-12,-289v-24,61,-59,127,-43,211v25,132,29,293,29,451xm224,-295v13,-51,-9,-137,28,-170v15,-1,14,14,29,14v-12,63,41,81,56,127v29,17,70,26,71,71v33,-2,52,-26,85,-28v38,-69,68,-150,99,-226v7,1,14,6,14,14v27,98,23,225,45,325v8,38,10,74,-3,112v44,-13,92,-16,126,-41r15,-227v-40,-93,-13,-234,-29,-352v-8,-56,-49,29,-70,-14v-36,18,-79,13,-127,28v-42,40,-57,102,-99,142v-15,31,-18,74,-42,97v-44,-72,-111,-124,-155,-196v-60,1,-133,-1,-183,14v15,187,13,383,14,577v8,0,13,7,14,14v48,16,89,12,126,-14r-14,-14v14,-84,14,-168,0,-253xm578,29v-15,-35,0,-91,-15,-126v0,-77,-15,-145,-28,-212v-15,56,-56,85,-71,141r15,14r-29,14v-26,-27,-54,13,-85,0v-30,-44,-83,-69,-113,-113v-11,100,27,190,-1,281v-8,28,-26,57,-54,86v-55,2,-97,28,-141,42v-41,-86,-29,-223,-29,-338v0,-77,-15,-145,-28,-212v39,-61,31,-151,71,-211v2,-12,-15,-1,-14,-14v27,0,56,-1,70,-15v43,16,87,-12,126,0v56,56,128,99,170,169r127,-225v62,-1,116,0,155,-28v22,27,78,-27,85,28v16,127,-13,275,14,395v16,70,-14,141,0,212r-71,83r14,15v-40,39,-128,3,-168,42v-19,-6,-14,-21,0,-28","w":833},"N":{"d":"236,14v-49,-16,-93,3,-133,15r15,15r-30,0r-14,59v51,0,76,-1,118,-15xm530,44v58,-30,133,-44,147,-118v-57,30,-160,25,-147,118xm515,14v17,-18,15,-49,30,-73v-21,-98,-118,-131,-163,-206v-58,-32,-111,-78,-131,-147r14,147v64,107,157,201,250,279xm88,0v-28,-183,-15,-402,-14,-604v-17,31,-45,57,-45,103v0,90,12,183,15,282v3,99,8,196,15,292v15,-24,12,-55,29,-73xm515,-633r-44,73v15,59,1,141,44,177v0,-84,-14,-172,0,-250xm251,-15v-2,-158,1,-295,-34,-423v-8,-10,-15,-27,4,-33v54,38,68,103,118,147v87,77,184,151,235,265r118,-59v-13,-186,-31,-393,-15,-589v-44,15,-124,-12,-147,29v-1,104,16,206,15,310v-2,11,15,26,0,29v-36,-3,-35,-41,-59,-59v0,20,-2,33,-15,45v-15,-13,-15,-46,0,-59v-76,-75,-130,-175,-220,-236v0,-15,-22,-1,-30,-15v8,-1,15,-5,15,-15r-133,15r-15,15r0,368v2,95,44,185,15,280r74,-15v25,-1,56,16,74,0xm500,-692v45,-42,148,-2,192,-45v29,29,0,78,0,118v0,141,16,269,15,412v15,23,2,63,15,89v16,30,-20,36,-30,59v-13,31,-29,42,-44,73v-48,15,-92,49,-133,74v-9,0,-16,-5,-15,-15v44,-34,-33,-46,-29,-88v-61,-45,-93,-94,-147,-148r-59,-59v16,58,-14,142,15,192v0,24,-5,44,-29,44v-18,49,-56,85,-74,133v-21,4,-13,-12,-15,-29v-34,0,-80,16,-118,14r-15,-14r-3,-324v-2,-55,-5,-110,-9,-165v-4,-55,-10,-108,-17,-159v40,-27,74,-84,74,-148v0,-26,26,-15,44,-14v48,2,104,-15,147,0r0,29v82,52,130,146,191,221v-34,-101,47,-149,44,-250","w":738},"O":{"d":"358,-411v-15,-16,-49,-16,-63,0v-2,68,5,129,46,156v36,24,90,62,141,31v0,-32,17,-68,0,-94v-31,-48,-61,-77,-124,-93xm108,-473v-27,60,-62,102,-78,170v25,125,21,271,92,353v50,58,152,97,256,68v65,-18,128,-48,181,-77v-166,21,-312,-13,-388,-109v-71,-89,-115,-266,-63,-405xm528,-255v61,-31,55,-154,24,-215v-16,-34,-41,-64,-70,-96v-27,-29,-48,14,-78,0v-59,12,-92,58,-109,108v111,6,226,80,233,203xm482,-177v-17,-16,-56,-2,-78,-17v-50,-19,-90,-57,-124,-92v-56,-114,0,-267,103,-296v25,-7,46,-17,67,-32v83,58,178,135,154,279v-13,75,-66,122,-122,158xm513,-660v-55,-63,-182,-28,-233,15v-106,46,-138,164,-172,281v3,174,65,305,187,357v111,47,292,35,357,-46v115,-95,154,-349,60,-498v-41,-65,-99,-122,-184,-140v0,21,-3,17,-15,31xm358,-707v85,-4,184,-32,248,16v107,80,187,193,187,373v0,139,-55,256,-156,311v-78,106,-210,156,-389,157v-197,-39,-220,-248,-249,-453v86,-166,164,-348,359,-404","w":815},"P":{"d":"222,26v-36,0,-81,15,-112,0v-12,29,-29,45,-48,63v60,-14,150,14,160,-63xm413,-341v-30,4,-41,29,-77,29v-51,0,-108,-1,-82,67v56,-29,125,-46,159,-96xm237,-515r17,79v31,0,53,-8,63,-31v-13,-31,-50,-34,-80,-48xm381,-515v-24,-39,-83,-66,-144,-48r0,32v51,1,78,30,113,47v19,-2,16,-21,31,-31xm378,-554v54,89,-70,137,-156,150v-15,2,-12,-3,-6,-10v4,-5,15,-13,6,-22r-16,-143v37,-30,104,-16,144,0xm47,74v14,-11,11,-31,31,-33v12,-164,6,-342,10,-514v1,-57,3,-114,7,-170v-14,31,-45,53,-48,95r-11,156v-11,156,-12,322,11,466xm460,-664v-71,-27,-162,-9,-238,-26v-33,15,-88,2,-112,31v-16,203,0,431,-15,637v13,15,15,10,15,32r48,0v87,33,55,-67,64,-128v6,-41,11,-89,-16,-111v21,1,15,-28,16,-48r-16,0v6,-52,68,-38,111,-48v83,-20,134,-68,192,-111v27,-45,48,-88,31,-159v-1,-48,-43,-55,-80,-69xm31,137v-16,-17,-1,-56,-16,-79v-16,-112,0,-238,0,-351r0,-286r16,0v49,-43,51,-149,159,-128v118,22,257,-27,334,48v70,7,57,124,36,177v-16,38,-43,70,-83,94v-45,75,-123,143,-223,159v1,88,-32,179,0,255v-29,28,-35,67,-64,95v-37,-18,-104,-14,-143,0v0,9,-7,17,-16,16","w":587},"Q":{"d":"584,10v13,-10,13,-41,-6,-42v-9,-4,-23,-4,-34,-4v17,20,-6,16,-16,31v11,10,36,23,56,15xm373,-177r0,48r31,-16v-2,-19,-22,-19,-31,-32xm514,-51v-16,31,-47,45,-78,61v-105,6,-229,24,-281,-46v-75,-101,-111,-306,-46,-451v-84,93,-91,272,-65,428v9,53,35,95,80,117v122,18,275,39,358,-32v-5,-39,56,-38,32,-77xm420,-300v1,-61,14,-132,-16,-171v-37,-12,-72,-61,-118,-61v-11,0,-18,12,-22,31v-48,98,-71,280,17,356v17,14,29,33,61,32v-15,-64,27,-98,31,-156v2,-21,31,-61,47,-31xm476,-518v-24,-47,-101,-73,-166,-47v68,56,160,95,142,233v-1,17,-2,33,-2,48r32,0v-1,-78,47,-143,15,-217v-7,-4,-15,-10,-21,-17xm249,-549v40,-4,47,-47,93,-46v90,-15,145,33,172,94v35,79,-16,163,-17,247v-39,13,-52,-33,-93,-30v-17,31,-15,61,-31,93r77,31v-16,34,-60,45,-92,63v-49,14,-77,-16,-109,-32v-83,-95,-42,-298,0,-404v-11,-1,-9,-7,0,-16xm528,-191v57,-80,79,-208,63,-342v-15,-47,-47,-77,-77,-109v-67,-29,-179,-77,-250,-16v-120,62,-156,194,-170,358v14,107,32,201,93,264v64,66,171,7,263,16v28,-14,43,-42,64,-63v36,2,55,30,91,32r48,-78v-28,-29,-58,-45,-94,-62v-11,-2,-28,15,-31,0xm591,42v-35,-13,-98,-32,-109,16r-124,46v-152,-12,-317,-17,-343,-155v-23,-122,-13,-228,17,-342v68,-129,139,-281,295,-312v147,-29,252,45,288,157v36,113,-10,250,-56,325r124,78v-44,47,-35,136,-92,171r0,16","w":699},"R":{"d":"58,49v43,-14,115,1,116,-58v-54,2,-101,17,-116,58xm582,-23v-42,28,-124,3,-146,58r102,0xm218,-286v-3,75,58,85,80,132v32,68,56,138,124,175v35,-49,-30,-88,-50,-117v-47,-67,-91,-137,-154,-190xm189,-519r0,102v27,-12,41,-26,59,-43v-19,-18,-25,-56,-59,-59xm189,-533v47,-7,67,28,73,58v40,-22,13,-99,-30,-99v-24,0,-50,-8,-47,14xm262,-417v-32,-26,-47,30,-88,15v15,-57,-14,-116,0,-174v37,-30,111,-12,117,29v43,45,-17,91,-29,130xm44,35v14,-28,33,-74,28,-116v-23,-183,16,-366,15,-554r-43,88v-1,148,-29,287,-15,437v14,37,15,97,15,145xm553,-53v-37,-132,-134,-219,-204,-320v34,-34,58,-78,87,-116v46,-57,-6,-129,-29,-174v-72,-34,-214,-58,-291,-15v-14,37,-7,98,-14,145v-23,160,-16,345,-15,524v30,-25,77,-15,116,-29v1,-99,-1,-189,-14,-276r14,0v119,60,158,202,248,291r15,-15v29,15,71,1,87,-15xm29,93v-14,-163,-30,-319,-14,-495r0,-131v25,-52,54,-94,72,-145v82,-55,238,-46,320,0v34,49,91,109,59,189r-87,116v59,105,144,188,203,292r15,43r-59,102v-28,-22,-72,-18,-116,-15v-101,-56,-118,-191,-204,-261r0,189v-45,10,-38,100,-102,72v-14,14,-44,30,-72,29v0,9,-6,16,-15,15","w":615},"S":{"d":"65,-63v2,17,-18,34,-17,50v100,42,245,119,367,51v-151,14,-247,-52,-350,-101xm415,-113v32,-31,49,-60,50,-117v-73,-93,-201,-118,-317,-166v-51,-35,-116,-97,-83,-184v-13,47,-50,90,-34,150v68,107,255,89,334,184v44,22,36,82,50,133xm332,-580v57,-19,105,-12,133,33v1,-15,10,-24,17,-33v-24,-40,-70,-51,-133,-50v-15,17,-64,14,-51,50r34,0xm365,-63v-20,-16,-55,2,-83,0v-59,-18,-118,-37,-134,-100v-11,29,-46,32,-67,50v-15,36,32,34,51,50v82,68,272,113,367,17v0,14,11,4,16,0v47,-52,112,-98,101,-200v-50,-139,-220,-161,-316,-252v-8,-9,-14,-19,-18,-32v-61,3,-4,-34,-17,-67v2,-35,48,-32,67,-50v76,-19,119,3,167,34v19,-21,15,-57,33,-84v-27,-15,-55,-19,-83,-33v-143,-18,-250,11,-334,83v-33,44,-41,112,-17,167v42,95,167,96,260,143v61,31,136,57,141,141v-19,69,-80,98,-134,133xm31,4v0,-22,20,-56,17,-83r-17,0v31,-48,86,-68,117,-117v20,20,36,54,50,83v43,15,102,50,151,17v55,3,38,-80,21,-112v-46,-87,-168,-99,-268,-136v-53,-20,-93,-57,-87,-136v12,-147,120,-222,233,-267v73,-13,166,-23,232,5v24,10,48,24,69,45v-1,-11,2,-7,7,-3v2,2,6,3,10,3v-14,47,-49,75,-51,134v-35,1,-48,31,-66,50v-1,-31,-23,-47,-50,-50v-39,-20,-70,4,-101,16v23,92,134,105,201,151v67,45,141,99,150,200v-34,86,-82,165,-167,200v-57,60,-184,123,-284,67v-54,-30,-98,-49,-167,-67","w":666},"T":{"d":"493,1v-39,31,-143,-30,-140,62v12,-15,48,1,62,-15v28,-15,79,1,78,-47xm321,48v14,-27,29,-44,48,-62r0,-78v46,-151,-49,-273,-32,-435v-17,33,-61,44,-62,93v28,33,22,93,31,140v21,107,-15,240,15,342xm321,-542v-50,16,-102,-16,-154,0v-52,16,-113,20,-125,77r62,0v39,44,105,3,156,0xm509,-558v-31,83,91,100,132,49v7,-9,10,-20,7,-33xm73,-635v-31,29,-46,94,-46,154v39,-27,47,-88,46,-154xm493,-496v-1,-32,-16,-66,0,-93v61,0,109,15,170,15r-15,-124r-62,0v-132,47,-309,0,-466,16r-16,15v-1,43,-16,85,0,125v59,-61,179,-2,265,-32v-1,17,16,15,15,32v-14,41,-15,103,-15,154v30,116,30,236,31,374v39,-31,118,13,139,-32v1,-160,-18,-303,-30,-450r-16,0xm648,-729v49,16,16,105,47,140r0,31v-58,8,-31,136,-109,93v-13,15,-48,0,-63,16v30,113,37,246,47,373v6,77,-61,93,-93,139v-42,15,-87,15,-140,16v-13,14,-16,9,-16,31v-28,-10,-1,-63,-30,-77v-16,-152,14,-335,-31,-467v-55,-15,-116,32,-156,-15v-34,2,-80,13,-93,-16r0,-124v30,-33,63,-61,77,-109v185,-16,398,14,560,-31","w":709},"U":{"d":"516,-640v-29,28,-43,69,-61,107v27,75,17,183,0,259v82,-70,65,-223,61,-366xm439,0v-72,6,-159,21,-197,-30v-95,-44,-79,-180,-122,-275v-13,-112,-46,-233,-16,-350v-40,41,-57,83,-75,138v15,133,18,274,46,395v49,65,87,148,183,167v75,15,136,0,181,-45xm258,-685v-41,-2,-87,16,-123,16v-29,71,-23,143,-15,227v10,115,60,188,61,304v33,48,89,76,137,108v101,16,185,-18,259,-46v115,-89,215,-237,167,-441v-30,-46,-30,-123,-61,-168v-45,16,-106,16,-137,45v-30,88,31,194,-15,275v-17,63,-44,120,-107,137v-53,-18,-103,-36,-122,-92v-35,